tree
version=v4
num_class=1
num_tree_per_iteration=1
label_index=0
max_feature_idx=4
objective=quantile
feature_names=year odometer est_value make_model_enc trim_tier
feature_infos=[2010:2025] [10000:300000] [1570:83701] [0:7] [1:3]
tree_sizes=634 702 692 702 927 701 705 705 685 693 690 575 693 810 690 575 707 676 821 794 816 811 810 808 699 810 809 697 819 739 815 777 777 777 777 697 812 810 810 811 703 811 810 812 704 810 811 776 809 669 776 707 783 811 810 667 776 807 806 704 703 693 686 817 809 702 694 795 686 702 692 687 816 827 808 809 805 809 806 809 805 808 817 810 803 798 826 807 826 819 797 803 807 802 803 804 806 811 812 812 813 831 830 813 810 815 816 810 817 906 830 698 909 821 825 821 832 833 815 833 823 924 925 812 814 767 810 815 808 802 812 801 810 813 792 806 805 826 805 826 807 771 805 806 830 821 702 788 688 813 810 820 808 809 820 807 810 820 807 804 815 814 805 816 808 691 811 707 806 809 809 809 808 809 809 809 808 809 811 790 708 816 812 814 703 809 811 919 819 819 701 901 915 917 917 830 792 899 820 814 682 705 707 713 828 690 703 709 709 689 712 688 708 708 688 712 708 689 711 807 824 837 834 808 833 807 816 792 808 829 818 720 814 786 784 826 789 706 713 924 913 813 698 824 754 695 795 807 695 798 805 815 781 797 798 806 797 807 798 806 805 795 807 795 806 815 799 699 703 691 819 805 757 710 705 705 702 702 816 815 816 808 798 708 689 688 696 799 710 688 688 712 688 693 688 684 798 709 688 687

Tree=0
num_leaves=6
num_cat=0
split_feature=4 1 0 3 1
split_gain=2.59226 0.722468 0.6402 0.527009 0.358561
threshold=1.5000000000000002 190500.00000000003 2019.5000000000002 4.0000000000000009 161750.00000000003
decision_type=2 2 2 2 2
left_child=1 2 4 -4 -1
right_child=-2 -3 3 -5 -6
leaf_value=3528.5250000000001 3863.1999999999998 3642.4499999999998 4363.3500000000004 3382.4499999999998 3575.9499999999998
leaf_weight=18.000000000000004 18 17 11 12 12.999999999999998
leaf_count=18 18 17 11 12 13
internal_value=3619 3619 3618.99 3619 3618.99
internal_weight=89 71 54 23 31
internal_count=89 71 54 23 31
is_linear=0
shrinkage=1


Tree=1
num_leaves=6
num_cat=0
split_feature=4 1 2 1 0
split_gain=2.42325 0.613704 0.483775 0.264292 0.0588116
threshold=1.5000000000000002 190500.00000000003 38152.000000000007 161750.00000000003 2018.5000000000002
decision_type=2 2 2 2 2
left_child=1 2 3 4 -1
right_child=-2 -3 -4 -5 -6
leaf_value=-79.626250000000013 231.99000000000001 22.277500000000011 6.8324999999999818 -38.097499999999989 -164.42250000000001
leaf_weight=13.000000000000002 18 17 12.999999999999998 13.999999999999998 13.999999999999998
leaf_count=13 18 17 13 14 14
internal_value=0.000280899 -0.00387324 -0.00648148 -0.00914634 -0.012037
internal_weight=89 71 54 41 27
internal_count=89 71 54 41 27
is_linear=0
shrinkage=0.05


Tree=2
num_leaves=6
num_cat=0
split_feature=4 1 2 1 0
split_gain=1.81214 0.613704 0.483775 0.264292 0.0588116
threshold=1.5000000000000002 190500.00000000003 38152.000000000007 161750.00000000003 2018.5000000000002
decision_type=2 2 2 2 2
left_child=1 2 3 4 -1
right_child=-2 -3 -4 -5 -6
leaf_value=-75.644937500000012 220.39050000000003 21.163625000000003 6.49087499999996 -36.192625 -156.20137499999998
leaf_weight=13.000000000000002 18 17 12.999999999999998 13.999999999999998 13.999999999999998
leaf_count=13 18 17 13 14 14
internal_value=-0.000280899 -0.00387324 -0.00648148 -0.00914634 -0.012037
internal_weight=89 71 54 41 27
internal_count=89 71 54 41 27
is_linear=0
shrinkage=0.05


Tree=3
num_leaves=6
num_cat=0
split_feature=4 1 2 1 0
split_gain=1.81214 0.613704 0.483775 0.264292 0.0588116
threshold=1.5000000000000002 190500.00000000003 38152.000000000007 161750.00000000003 2018.5000000000002
decision_type=2 2 2 2 2
left_child=1 2 3 4 -1
right_child=-2 -3 -4 -5 -6
leaf_value=-71.862690625000013 209.37097500000002 20.105443749999996 6.1663312499999847 -34.38299374999999 -148.39130624999999
leaf_weight=13.000000000000002 18 17 12.999999999999998 13.999999999999998 13.999999999999998
leaf_count=13 18 17 13 14 14
internal_value=-0.000280899 -0.00387324 -0.00648148 -0.00914634 -0.012037
internal_weight=89 71 54 41 27
internal_count=89 71 54 41 27
is_linear=0
shrinkage=0.05


Tree=4
num_leaves=8
num_cat=0
split_feature=0 1 4 1 0 2 0
split_gain=1.40887 1.39918 0.875758 0.456917 0.0779221 0.0214047 0.0038961
threshold=2022.5000000000002 219750.00000000003 1.5000000000000002 161750.00000000003 2020.5000000000002 16070.500000000002 2017.5000000000002
decision_type=2 2 2 2 2 2 2
left_child=1 2 3 4 6 -5 -1
right_child=-2 -3 -4 5 -6 -7 -8
leaf_value=-68.269556093749998 706.15801468749999 155.52629890624999 168.60242625000001 -5.1998284375000141 -335.07174093750001 -272.69884406250003 -48.425490937499994
leaf_weight=11.000000000000002 10.999999999999998 11.999999999999998 10.999999999999998 13.000000000000002 10.999999999999998 9.9999999999999982 9.9999999999999982
leaf_count=11 11 12 11 13 11 10 10
internal_value=-0.000842697 -0.00320513 -0.00606061 -0.00863636 -0.0125 -0.00326087 -0.0107143
internal_weight=89 78 66 55 32 23 21
internal_count=89 78 66 55 32 23 21
is_linear=0
shrinkage=0.05


Tree=5
num_leaves=6
num_cat=0
split_feature=4 1 0 1 2
split_gain=1.41373 0.722468 0.275544 0.553689 0.349597
threshold=1.5000000000000002 190500.00000000003 2019.5000000000002 71708.000000000015 16722.500000000004
decision_type=2 2 2 2 2
left_child=1 2 4 -4 -1
right_child=-2 -3 3 -5 -6
leaf_value=-35.203852640624994 191.1261113046875 19.360162984374984 -124.21815389062498 160.24781587500001 -107.60514733984374
leaf_weight=15.000000000000002 18 17 11.000000000000002 11.999999999999998 15.999999999999998
leaf_count=15 18 17 11 12 16
internal_value=-0.00140449 -0.00457746 -0.00740741 -0.00326087 -0.0104839
internal_weight=89 71 54 23 31
internal_count=89 71 54 23 31
is_linear=0
shrinkage=0.05


Tree=6
num_leaves=6
num_cat=0
split_feature=4 0 2 1 1
split_gain=1.17129 0.608395 1.04406 0.302735 0.314881
threshold=1.5000000000000002 2015.5000000000002 16070.500000000002 71708.000000000015 150200.00000000003
decision_type=2 2 2 2 2
left_child=1 -1 -3 -4 -5
right_child=-2 2 3 4 -6
leaf_value=-69.420885657031249 181.56980573945313 130.93084846796873 -118.00724619609373 0.32604097636719875 -145.47568280322267
leaf_weight=18 18 11.999999999999998 10.999999999999998 16.000000000000004 13.999999999999998
leaf_count=18 18 12 11 16 14
internal_value=-0.000280899 -0.00316901 -0.000471698 -0.00426829 -0.00166667
internal_weight=89 71 53 41 30
internal_count=89 71 53 41 30
is_linear=0
shrinkage=0.05


Tree=7
num_leaves=6
num_cat=0
split_feature=4 0 2 1 1
split_gain=1.17129 0.608395 1.04406 0.302735 0.314881
threshold=1.5000000000000002 2015.5000000000002 16070.500000000002 71708.000000000015 150200.00000000003
decision_type=2 2 2 2 2
left_child=1 -1 -3 -4 -5
right_child=-2 2 3 4 -6
leaf_value=-65.949841374179684 172.49131545248048 124.38430604457031 -112.10688388628905 0.30973892754884674 -138.20189866306154
leaf_weight=18 18 11.999999999999998 10.999999999999998 16.000000000000004 13.999999999999998
leaf_count=18 18 12 11 16 14
internal_value=-0.000280899 -0.00316901 -0.000471698 -0.00426829 -0.00166667
internal_weight=89 71 53 41 30
internal_count=89 71 53 41 30
is_linear=0
shrinkage=0.05


Tree=8
num_leaves=6
num_cat=0
split_feature=4 0 2 3 1
split_gain=1.05862 0.721071 0.897722 0.435725 1.12508
threshold=1.5000000000000002 2015.5000000000002 16070.500000000002 4.0000000000000009 135000.00000000003
decision_type=2 2 2 2 2
left_child=1 -1 -3 -4 -5
right_child=-2 2 3 4 -6
leaf_value=-62.652349305470693 163.86674967985647 118.16509074234177 0.29425198117139645 -300.60153969197466 108.53526183319985
leaf_weight=18 18 11.999999999999998 18 13.000000000000002 9.9999999999999982
leaf_count=18 18 12 18 13 10
internal_value=0.000280899 -0.00246479 0.000471698 -0.00304878 -0.0076087
internal_weight=89 71 53 41 23
internal_count=89 71 53 41 23
is_linear=0
shrinkage=0.05


Tree=9
num_leaves=6
num_cat=0
split_feature=4 0 1 0 1
split_gain=1.05862 0.721071 0.777751 0.348214 0.354545
threshold=1.5000000000000002 2015.5000000000002 71708.000000000015 2017.5000000000002 150200.00000000003
decision_type=2 2 2 2 2
left_child=1 -1 -3 -4 -5
right_child=-2 2 3 4 -6
leaf_value=-59.519731840197167 155.67341219586365 -91.471462707375878 37.855436910821552 0.27953938211283003 -181.57947801812716
leaf_weight=18 18 10.999999999999998 15.999999999999998 15.000000000000002 10.999999999999998
leaf_count=18 18 11 16 15 11
internal_value=0.000280899 -0.00246479 0.000471698 0.00357143 0
internal_weight=89 71 53 42 26
internal_count=89 71 53 42 26
is_linear=0
shrinkage=0.05


Tree=10
num_leaves=6
num_cat=0
split_feature=4 0 1 1 1
split_gain=1.17129 0.608395 0.658703 0.304762 0.5
threshold=1.5000000000000002 2015.5000000000002 71708.000000000015 201000.00000000003 150200.00000000003
decision_type=2 2 2 2 2
left_child=1 -1 -3 4 -4
right_child=-2 2 3 -5 -6
leaf_value=-56.543745248187321 147.88974158607047 -86.897889572007088 2.0726288173993681 159.39993723290732 -59.093053029543036
leaf_weight=18 18 10.999999999999998 15.999999999999998 9.9999999999999982 15.999999999999998
leaf_count=18 18 11 16 10 16
internal_value=-0.000280899 -0.00316901 -0.000471698 0.00238095 0
internal_weight=89 71 53 42 32
internal_count=89 71 53 42 32
is_linear=0
shrinkage=0.05


Tree=11
num_leaves=5
num_cat=0
split_feature=4 0 0 3
split_gain=0.951636 0.843314 1.12647 0.531374
threshold=1.5000000000000002 2015.5000000000002 2017.5000000000002 4.0000000000000009
decision_type=2 2 2 2
left_child=1 -1 -3 -4
right_child=-2 2 3 -5
leaf_value=-53.716557985777946 140.49525450676697 37.388175670584076 0.16193097213722468 -272.73901768120641
leaf_weight=18 18 15.999999999999998 18 19
leaf_count=18 18 16 18 19
internal_value=0.000842697 -0.00176056 0.00141509 -0.00337838
internal_weight=89 71 53 37
internal_count=89 71 53 37
is_linear=0
shrinkage=0.05


Tree=12
num_leaves=6
num_cat=0
split_feature=4 0 1 0 1
split_gain=1.05862 0.721071 0.777751 0.348214 0.354545
threshold=1.5000000000000002 2015.5000000000002 71708.000000000015 2017.5000000000002 150200.00000000003
decision_type=2 2 2 2 2
left_child=1 -1 -3 -4 -5
right_child=-2 2 3 4 -6
leaf_value=-51.030730086489058 133.47049178142862 -68.91604420934641 35.518766887054873 0.15383442353036117 -169.55394801435051
leaf_weight=18 18 10.999999999999998 15.999999999999998 15.000000000000002 10.999999999999998
leaf_count=18 18 11 16 15 11
internal_value=0.000280899 -0.00246479 0.000471698 0.00357143 0
internal_weight=89 71 53 42 26
internal_count=89 71 53 42 26
is_linear=0
shrinkage=0.05


Tree=13
num_leaves=7
num_cat=0
split_feature=0 1 4 0 0 1
split_gain=1.31596 1.2873 0.775758 0.490627 0.427959 0.106667
threshold=2022.5000000000002 219750.00000000003 1.5000000000000002 2020.5000000000002 2016.5000000000002 171500.00000000003
decision_type=2 2 2 2 2 2
left_child=1 2 3 4 -1 -6
right_child=-2 -3 -4 -5 5 -7
leaf_value=-13.226967933727089 662.65782488536161 128.65793781292993 95.843160825169718 -274.95457038662715 0.14614270235383628 -99.583111938144597
leaf_weight=18 10.999999999999998 11.999999999999998 10.999999999999998 11.999999999999998 15.000000000000002 9.9999999999999982
leaf_count=18 11 12 11 12 15 10
internal_value=-0.000280899 -0.0025641 -0.00530303 -0.00772727 -0.00523256 -0.001
internal_weight=89 78 66 55 43 25
internal_count=89 78 66 55 43 25
is_linear=0
shrinkage=0.05


Tree=14
num_leaves=6
num_cat=0
split_feature=4 0 1 1 1
split_gain=1.17129 0.608395 0.658703 0.304762 0.5
threshold=1.5000000000000002 2015.5000000000002 71708.000000000015 201000.00000000003 150200.00000000003
decision_type=2 2 2 2 2
left_child=1 -1 -3 4 -4
right_child=-2 2 3 -5 -6
leaf_value=-47.817845185478248 120.36407030171068 -51.722513479547729 0.46545030848106994 153.30669405906343 -59.45672687516349
leaf_weight=18 18 10.999999999999998 15.999999999999998 9.9999999999999982 15.999999999999998
leaf_count=18 18 11 16 10 16
internal_value=-0.000280899 -0.00316901 -0.000471698 0.00238095 0
internal_weight=89 71 53 42 32
internal_count=89 71 53 42 32
is_linear=0
shrinkage=0.05


Tree=15
num_leaves=5
num_cat=0
split_feature=4 0 0 3
split_gain=0.951636 0.843314 1.12647 0.531374
threshold=1.5000000000000002 2015.5000000000002 2017.5000000000002 4.0000000000000009
decision_type=2 2 2 2
left_child=1 -1 -3 -4
right_child=-2 2 3 -5
leaf_value=-45.426952926204336 114.34586678662514 39.368876435876693 0.11556305181209155 -243.23638780557036
leaf_weight=18 18 15.999999999999998 18 19
leaf_count=18 18 16 18 19
internal_value=0.000842697 -0.00176056 0.00141509 -0.00337838
internal_weight=89 71 53 37
internal_count=89 71 53 37
is_linear=0
shrinkage=0.05


Tree=16
num_leaves=6
num_cat=0
split_feature=4 1 0 1 1
split_gain=1.28966 0.595156 0.286508 0.361961 0.391935
threshold=1.5000000000000002 211500.00000000003 2016.5000000000002 71708.000000000015 150200.00000000003
decision_type=2 2 2 2 2
left_child=1 2 -1 -4 -5
right_child=-2 -3 3 4 -6
leaf_value=-7.9033796314566196 108.62857344729387 108.65640435040605 -36.974568415291834 0.10978489922149492 -116.19672498532077
leaf_weight=18 18 10.999999999999998 10.999999999999998 15.000000000000002 15.999999999999998
leaf_count=18 18 11 11 15 16
internal_value=-0.000842697 -0.00387324 -0.00583333 -0.00357143 -0.000806452
internal_weight=89 71 60 42 31
internal_count=89 71 60 42 31
is_linear=0
shrinkage=0.05


Tree=17
num_leaves=6
num_cat=0
split_feature=4 0 1 1 3
split_gain=1.17129 0.608395 0.658703 0.304762 0.533333
threshold=1.5000000000000002 2015.5000000000002 71708.000000000015 201000.00000000003 2.5000000000000004
decision_type=2 2 2 2 2
left_child=1 -1 -3 4 -4
right_child=-2 2 3 -5 -6
leaf_value=-42.760436298321295 103.19714477492917 -35.12583999452724 2.935548260306291 145.3052269228323 -20.871376046232527
leaf_weight=18 18 10.999999999999998 11.999999999999998 9.9999999999999982 20
leaf_count=18 18 11 12 10 20
internal_value=-0.000280899 -0.00316901 -0.000471698 0.00238095 0
internal_weight=89 71 53 42 32
internal_count=89 71 53 42 32
is_linear=0
shrinkage=0.05


Tree=18
num_leaves=7
num_cat=0
split_feature=1 0 2 0 0 1
split_gain=0.906282 0.424242 0.976114 0.480392 0.931803 0.0155844
threshold=219750.00000000003 2022.5000000000002 32006.000000000004 2015.5000000000002 2017.5000000000002 150200.00000000003
decision_type=2 2 2 2 2 2
left_child=1 2 3 -1 -5 -6
right_child=-2 -3 -4 4 5 -7
leaf_value=-34.297414483405241 107.93964527451232 629.34361631510251 -267.96105322762554 5.620023453336831 -0.042481758754888688 -107.05054262024615
leaf_weight=17 11.999999999999998 10.999999999999998 14.999999999999998 12.999999999999998 11.000000000000002 9.9999999999999982
leaf_count=17 12 11 15 13 11 10
internal_value=-0.000280899 -0.00227273 -0.00378788 -0.000490196 0.00294118 -0.00357143
internal_weight=89 77 66 51 34 21
internal_count=89 77 66 51 34 21
is_linear=0
shrinkage=0.05


Tree=19
num_leaves=7
num_cat=0
split_feature=1 0 4 0 0 0
split_gain=1.07263 0.554113 0.775758 0.519697 0.416667 0.145833
threshold=219750.00000000003 2022.5000000000002 1.5000000000000002 2017.5000000000002 2015.5000000000002 2020.5000000000002
decision_type=2 2 2 2 2 2
left_child=1 2 3 4 -1 -5
right_child=-2 -3 -4 5 -6 -7
leaf_value=-32.58254375923498 102.5426630107867 597.87643549934728 68.726344106320994 -91.003513877295859 3.9795677844085731 -234.31724794983194
leaf_weight=15 11.999999999999998 10.999999999999998 10.999999999999998 16.000000000000004 12 11.999999999999998
leaf_count=15 12 11 11 16 12 12
internal_value=-0.00140449 -0.00357143 -0.00530303 -0.00772727 -0.00277778 -0.0125
internal_weight=89 77 66 55 27 28
internal_count=89 77 66 55 27 28
is_linear=0
shrinkage=0.05


Tree=20
num_leaves=7
num_cat=0
split_feature=1 0 2 0 1 1
split_gain=0.906282 0.424242 0.976114 0.480392 0.619507 0.409699
threshold=219750.00000000003 2022.5000000000002 32006.000000000004 2015.5000000000002 180500.00000000003 144950.50000000003
decision_type=2 2 2 2 2 2
left_child=1 2 3 -1 5 -5
right_child=-2 -3 -4 4 -6 -7
leaf_value=-30.953416571273237 97.415529860247361 567.98261372437992 -242.84713816875265 83.635483747536284 -55.922657316045161 5.1400438914495687
leaf_weight=17 11.999999999999998 10.999999999999998 14.999999999999998 10.000000000000002 10.999999999999998 12.999999999999998
leaf_count=17 12 11 15 10 11 13
internal_value=-0.000280899 -0.00227273 -0.00378788 -0.000490196 0.00294118 0.0076087
internal_weight=89 77 66 51 34 23
internal_count=89 77 66 51 34 23
is_linear=0
shrinkage=0.05


Tree=21
num_leaves=7
num_cat=0
split_feature=1 0 2 0 1 1
split_gain=0.615606 0.21645 0.445633 0.352941 0.29063 0.409699
threshold=219750.00000000003 2022.5000000000002 32006.000000000004 2015.5000000000002 180500.00000000003 144950.50000000003
decision_type=2 2 2 2 2 2
left_child=1 2 3 -1 5 -5
right_child=-2 -3 -4 4 -6 -7
leaf_value=-29.405745742709588 92.544753367234989 539.58348303816092 -230.70478126031503 79.453709560159453 -53.126524450242918 4.8830416968770809
leaf_weight=17 11.999999999999998 10.999999999999998 14.999999999999998 10.000000000000002 10.999999999999998 12.999999999999998
leaf_count=17 12 11 15 10 11 13
internal_value=0.00196629 0.000324675 -0.000757576 0.00147059 0.00441176 0.0076087
internal_weight=89 77 66 51 34 23
internal_count=89 77 66 51 34 23
is_linear=0
shrinkage=0.05


Tree=22
num_leaves=7
num_cat=0
split_feature=2 1 3 1 0 1
split_gain=0.532872 0.992821 0.548164 0.664163 0.500988 0.304762
threshold=11778.000000000002 176750.00000000003 2.5000000000000004 145592.50000000003 2021.5000000000002 219750.00000000003
decision_type=2 2 2 2 2 2
left_child=5 2 -2 4 -4 -1
right_child=1 -3 3 -5 -6 -7
leaf_value=0.99176719286342641 64.788872621588652 -126.64004442047029 -151.51402878019582 70.450017713086737 15.42196303552538 103.18199807359252
leaf_weight=14.000000000000002 17 14.999999999999998 12.000000000000002 9.9999999999999982 10.999999999999998 9.9999999999999982
leaf_count=14 17 15 12 10 11 10
internal_value=0.00196629 -0.000384615 0.003 -0.000757576 -0.00543478 0.00833333
internal_weight=89 65 50 33 23 24
internal_count=89 65 50 33 23 24
is_linear=0
shrinkage=0.05


Tree=23
num_leaves=7
num_cat=0
split_feature=2 1 3 1 1 0
split_gain=0.631057 0.862051 0.70877 0.304762 0.303557 0.500988
threshold=11778.000000000002 176750.00000000003 2.5000000000000004 219750.00000000003 145592.50000000003 2021.5000000000002
decision_type=2 2 2 2 2 2
left_child=3 2 -2 -1 5 -4
right_child=1 -3 4 -5 -6 -7
leaf_value=0.94217883322025964 61.549428990509206 -120.30804219944679 -143.93832734118604 98.022898169912878 66.927516827432399 14.650864883749115
leaf_weight=14.000000000000002 17 14.999999999999998 12.000000000000002 9.9999999999999982 9.9999999999999982 10.999999999999998
leaf_count=14 17 15 12 10 10 11
internal_value=0.00140449 -0.00115385 0.002 0.00833333 -0.00227273 -0.00543478
internal_weight=89 65 50 24 33 23
internal_count=89 65 50 24 33 23
is_linear=0
shrinkage=0.05


Tree=24
num_leaves=6
num_cat=0
split_feature=2 1 3 3 1
split_gain=0.852319 0.66097 1.25012 0.693096 0.304762
threshold=11778.000000000002 144950.50000000003 4.0000000000000009 4.0000000000000009 219750.00000000003
decision_type=2 2 2 2 2
left_child=4 3 -3 -2 -1
right_child=1 2 -4 -5 -6
leaf_value=0.89506989155925121 506.28739380564804 -114.29264008947445 54.820398937637265 -123.33724143131468 93.12175326141724
leaf_weight=14.000000000000002 13.999999999999998 14.999999999999998 17 19 9.9999999999999982
leaf_count=14 14 15 17 19 10
internal_value=0.000280899 -0.00269231 -0.0078125 0.00227273 0.00833333
internal_weight=89 65 32 33 24
internal_count=89 65 32 33 24
is_linear=0
shrinkage=0.05


Tree=25
num_leaves=7
num_cat=0
split_feature=2 1 3 1 0 0
split_gain=0.532872 0.992821 0.548164 0.304762 0.19025 0.258235
threshold=11778.000000000002 176750.00000000003 2.5000000000000004 219750.00000000003 2017.5000000000002 2021.5000000000002
decision_type=2 2 2 2 2 2
left_child=3 2 -2 -1 -4 -6
right_child=1 -3 4 -5 5 -7
leaf_value=0.85031639698129313 64.186589545457494 -108.57800808500072 41.072495117178875 88.465665598346376 -277.37167353310014 20.085183711127392
leaf_weight=14.000000000000002 17 14.999999999999998 9.9999999999999982 9.9999999999999982 12.000000000000002 10.999999999999998
leaf_count=14 17 15 10 10 12 11
internal_value=0.00196629 -0.000384615 0.003 0.00833333 -0.000757576 -0.00326087
internal_weight=89 65 50 24 33 23
internal_count=89 65 50 24 33 23
is_linear=0
shrinkage=0.05


Tree=26
num_leaves=7
num_cat=0
split_feature=2 1 3 1 0 0
split_gain=0.532872 0.992821 0.548164 0.304762 0.19025 0.258235
threshold=11778.000000000002 176750.00000000003 2.5000000000000004 219750.00000000003 2017.5000000000002 2021.5000000000002
decision_type=2 2 2 2 2 2
left_child=3 2 -2 -1 -4 -6
right_child=1 -3 4 -5 5 -7
leaf_value=0.80780057713222964 60.97726006818462 -103.14910768075067 39.018870361319934 84.042382318429063 -263.50308985644517 19.080924525571021
leaf_weight=14.000000000000002 17 14.999999999999998 9.9999999999999982 9.9999999999999982 12.000000000000002 10.999999999999998
leaf_count=14 17 15 10 10 12 11
internal_value=0.00196629 -0.000384615 0.003 0.00833333 -0.000757576 -0.00326087
internal_weight=89 65 50 24 33 23
internal_count=89 65 50 24 33 23
is_linear=0
shrinkage=0.05


Tree=27
num_leaves=6
num_cat=0
split_feature=2 1 3 3 1
split_gain=0.73754 0.87449 1.25012 0.466621 0.304762
threshold=11778.000000000002 144950.50000000003 4.0000000000000009 4.0000000000000009 219750.00000000003
decision_type=2 2 2 2 2
left_child=4 3 -3 -2 -1
right_child=1 2 -4 -5 -6
leaf_value=0.76741054827562039 474.71483163468361 -101.31854556660124 65.596294813677488 -119.12868477158391 79.8402632025076
leaf_weight=14.000000000000002 13.999999999999998 14.999999999999998 17 19 9.9999999999999982
leaf_count=14 14 15 17 19 10
internal_value=0.000842697 -0.00192308 -0.0078125 0.00378788 0.00833333
internal_weight=89 65 32 33 24
internal_count=89 65 32 33 24
is_linear=0
shrinkage=0.05


Tree=28
num_leaves=7
num_cat=0
split_feature=2 1 2 3 1 2
split_gain=0.442985 1.13282 0.445873 0.509192 0.304762 0.114545
threshold=11778.000000000002 176750.00000000003 42097.500000000007 4.0000000000000009 219750.00000000003 24954.500000000004
decision_type=2 2 2 2 2 2
left_child=4 2 3 -2 -1 -5
right_child=1 -3 -4 5 -6 -7
leaf_value=0.72904002086183939 62.994324343105475 -92.925725018383091 -154.38147525775673 -0.23915297879834727 75.848250042382233 24.083312537871663
leaf_weight=14.000000000000002 10.999999999999998 14.999999999999998 13.999999999999998 14.000000000000002 9.9999999999999982 10.999999999999998
leaf_count=14 11 15 14 14 10 11
internal_value=0.00252809 0.000384615 0.004 0.00694444 0.00833333 0.003
internal_weight=89 65 50 36 24 25
internal_count=89 65 50 36 24 25
is_linear=0
shrinkage=0.05


Tree=29
num_leaves=7
num_cat=0
split_feature=4 0 1 1 0 3
split_gain=0.585219 0.416689 0.576052 0.9 0.2 0.2
threshold=1.5000000000000002 2015.5000000000002 190500.00000000003 119423.00000000001 2018.5000000000002 4.0000000000000009
decision_type=2 2 2 2 2 2
left_child=1 -1 3 5 -5 -3
right_child=-2 2 -4 4 -6 -7
leaf_value=-37.850421291209216 75.597128747851485 447.82937383579412 68.772677653311987 -7.6338581518358071 -148.10472347572315 -80.991113649020406
leaf_weight=18 18 10 12.999999999999998 10.000000000000002 9.9999999999999982 10
leaf_count=18 18 10 13 10 10 10
internal_value=0.000280899 -0.00176056 0.000471698 -0.0025 -0.01 0.005
internal_weight=89 71 53 40 20 20
internal_count=89 71 53 40 20 20
is_linear=0
shrinkage=0.05


Tree=30
num_leaves=7
num_cat=0
split_feature=2 1 2 3 1 2
split_gain=0.442985 1.13282 0.445873 0.509192 0.304762 0.114545
threshold=11778.000000000002 176750.00000000003 42097.500000000007 4.0000000000000009 219750.00000000003 24954.500000000004
decision_type=2 2 2 2 2 2
left_child=4 2 3 -2 -1 -5
right_child=1 -3 -4 5 -6 -7
leaf_value=1.666965254048796 56.064751688557635 -86.38691770290346 -159.74806405946003 0.15449757773335479 68.446592380234037 26.928702593429104
leaf_weight=14.000000000000002 10.999999999999998 14.999999999999998 13.999999999999998 14.000000000000002 9.9999999999999982 10.999999999999998
leaf_count=14 11 15 14 14 10 11
internal_value=0.00252809 0.000384615 0.004 0.00694444 0.00833333 0.003
internal_weight=89 65 50 36 24 25
internal_count=89 65 50 36 24 25
is_linear=0
shrinkage=0.05


Tree=31
num_leaves=7
num_cat=0
split_feature=2 1 3 3 1 2
split_gain=0.532872 1.16721 1.35 0.782029 0.304762 0.110823
threshold=11778.000000000002 150200.00000000003 4.0000000000000009 4.0000000000000009 219750.00000000003 32006.000000000004
decision_type=2 2 2 2 2 2
left_child=4 3 -3 -2 -1 -5
right_child=1 2 -4 5 -6 -7
leaf_value=1.5836169913463665 213.14165187473643 -157.15607200982382 62.702405750638654 11.941746343760668 65.024262761222346 -134.88168127038941
leaf_weight=14.000000000000002 17 12 15 11.000000000000002 9.9999999999999982 9.9999999999999982
leaf_count=14 17 12 15 11 10 10
internal_value=0.00196629 -0.000384615 -0.00833333 0.00526316 0.00833333 -0.00119048
internal_weight=89 65 27 38 24 21
internal_count=89 65 27 38 24 21
is_linear=0
shrinkage=0.05


Tree=32
num_leaves=7
num_cat=0
split_feature=2 1 2 1 3 1
split_gain=0.631057 0.862051 0.32 0.43956 0.346154 0.304762
threshold=11778.000000000002 176750.00000000003 19076.500000000004 119423.00000000001 4.0000000000000009 219750.00000000003
decision_type=2 2 2 2 2 2
left_child=5 2 -2 4 -4 -1
right_child=1 -3 3 -5 -6 -7
leaf_value=1.5044361417790471 36.926058467486648 -76.743530124748574 411.97758496583975 -46.966608535981358 -94.501545941016957 61.773049623161228
leaf_weight=14.000000000000002 9.9999999999999982 14.999999999999998 13 13.999999999999998 13 9.9999999999999982
leaf_count=14 10 15 13 14 13 10
internal_value=0.00140449 -0.00115385 0.002 0 0.00384615 0.00833333
internal_weight=89 65 50 40 26 24
internal_count=89 65 50 40 26 24
is_linear=0
shrinkage=0.05


Tree=33
num_leaves=7
num_cat=0
split_feature=2 1 2 1 3 1
split_gain=0.631057 0.862051 0.32 0.43956 0.346154 0.304762
threshold=11778.000000000002 176750.00000000003 19076.500000000004 119423.00000000001 4.0000000000000009 219750.00000000003
decision_type=2 2 2 2 2 2
left_child=5 2 -2 4 -4 -1
right_child=1 -3 3 -5 -6 -7
leaf_value=1.4292143346900958 35.079755544112309 -72.906353618511147 391.37870571754775 -44.618278109182292 -89.776468643966112 58.684397142003149
leaf_weight=14.000000000000002 9.9999999999999982 14.999999999999998 13 13.999999999999998 13 9.9999999999999982
leaf_count=14 10 15 13 14 13 10
internal_value=0.00140449 -0.00115385 0.002 0 0.00384615 0.00833333
internal_weight=89 65 50 40 26 24
internal_count=89 65 50 40 26 24
is_linear=0
shrinkage=0.05


Tree=34
num_leaves=7
num_cat=0
split_feature=2 1 2 1 3 1
split_gain=0.631057 0.862051 0.32 0.43956 0.346154 0.304762
threshold=11778.000000000002 176750.00000000003 19076.500000000004 119423.00000000001 4.0000000000000009 219750.00000000003
decision_type=2 2 2 2 2 2
left_child=5 2 -2 4 -4 -1
right_child=1 -3 3 -5 -6 -7
leaf_value=1.3577536179555865 33.325767766906701 -69.261035937585575 371.80977043167042 -42.387364203723173 -85.287645211767824 55.750177284903003
leaf_weight=14.000000000000002 9.9999999999999982 14.999999999999998 13 13.999999999999998 13 9.9999999999999982
leaf_count=14 10 15 13 14 13 10
internal_value=0.00140449 -0.00115385 0.002 0 0.00384615 0.00833333
internal_weight=89 65 50 40 26 24
internal_count=89 65 50 40 26 24
is_linear=0
shrinkage=0.05


Tree=35
num_leaves=6
num_cat=0
split_feature=2 1 3 3 1
split_gain=0.468345 0.87449 1.25012 0.466621 0.0964286
threshold=11778.000000000002 144950.50000000003 4.0000000000000009 4.0000000000000009 219750.00000000003
decision_type=2 2 2 2 2
left_child=4 3 -3 -2 -1
right_child=1 2 -4 -5 -6
leaf_value=1.2898659370578116 353.21928191008692 -70.246822045839153 54.300706374181438 -81.023262951179461 52.962668420657863
leaf_weight=14.000000000000002 13.999999999999998 14.999999999999998 17 19 9.9999999999999982
leaf_count=14 14 15 17 19 10
internal_value=0.000280899 -0.00192308 -0.0078125 0.00378788 0.00625
internal_weight=89 65 32 33 24
internal_count=89 65 32 33 24
is_linear=0
shrinkage=0.05


Tree=36
num_leaves=7
num_cat=0
split_feature=2 0 1 1 2 1
split_gain=0.341935 0.588352 0.269188 0.500595 0.14026 0.0974026
threshold=40192.500000000007 2015.5000000000002 150200.00000000003 190500.00000000003 29229.000000000004 180500.00000000003
decision_type=2 2 2 2 2 2
left_child=1 5 4 -4 -3 -1
right_child=-2 2 3 -5 -6 -7
leaf_value=-39.433709177902166 -76.972099803620495 20.971760347234707 -46.219794515037364 50.314534999624975 49.855797664673645 -24.818612399656445
leaf_weight=11.000000000000002 17 10.000000000000002 14.000000000000002 15.999999999999998 10.999999999999998 9.9999999999999982
leaf_count=11 17 10 14 16 11 10
internal_value=0.00196629 0.00347222 0.00637255 0.00333333 0.0107143 -0.00357143
internal_weight=89 72 51 30 21 21
internal_count=89 72 51 30 21 21
is_linear=0
shrinkage=0.05


Tree=37
num_leaves=7
num_cat=0
split_feature=2 0 1 1 2 1
split_gain=0.28435 0.478058 0.404482 0.579789 0.14026 0.0974026
threshold=40192.500000000007 2015.5000000000002 150200.00000000003 201000.00000000003 29229.000000000004 180500.00000000003
decision_type=2 2 2 2 2 2
left_child=1 5 4 -4 -3 -1
right_child=-2 2 3 -5 -6 -7
leaf_value=-37.462023719007064 -73.12349481343945 19.923172329872973 -23.394118360775657 50.911356859231368 47.363007781439961 -23.577681779673618
leaf_weight=11.000000000000002 17 10.000000000000002 17.000000000000004 12.999999999999998 10.999999999999998 9.9999999999999982
leaf_count=11 17 10 17 13 11 10
internal_value=0.00140449 0.00277778 0.00539216 0.00166667 0.0107143 -0.00357143
internal_weight=89 72 51 30 21 21
internal_count=89 72 51 30 21 21
is_linear=0
shrinkage=0.05


Tree=38
num_leaves=7
num_cat=0
split_feature=2 0 1 1 2 1
split_gain=0.28435 0.478058 0.404482 0.579789 0.14026 0.0974026
threshold=40192.500000000007 2015.5000000000002 150200.00000000003 201000.00000000003 29229.000000000004 180500.00000000003
decision_type=2 2 2 2 2 2
left_child=1 5 4 -4 -3 -1
right_child=-2 2 3 -5 -6 -7
leaf_value=-35.58892253305671 -69.467320072767507 18.927013713379321 -22.224412442736867 48.365789016269815 44.994857392367962 -22.398797690689946
leaf_weight=11.000000000000002 17 10.000000000000002 17.000000000000004 12.999999999999998 10.999999999999998 9.9999999999999982
leaf_count=11 17 10 17 13 11 10
internal_value=0.00140449 0.00277778 0.00539216 0.00166667 0.0107143 -0.00357143
internal_weight=89 72 51 30 21 21
internal_count=89 72 51 30 21 21
is_linear=0
shrinkage=0.05


Tree=39
num_leaves=7
num_cat=0
split_feature=2 0 1 1 2 1
split_gain=0.341935 0.588352 0.269188 0.500595 0.14026 0.0974026
threshold=40192.500000000007 2015.5000000000002 150200.00000000003 190500.00000000003 29229.000000000004 180500.00000000003
decision_type=2 2 2 2 2 2
left_child=1 5 4 -4 -3 -1
right_child=-2 2 3 -5 -6 -7
leaf_value=-33.809476406403881 -65.993954069129174 17.980663027710353 -41.627878249109862 42.834950955868706 42.74511452274956 -21.278857806155443
leaf_weight=11.000000000000002 17 10.000000000000002 14.000000000000002 15.999999999999998 10.999999999999998 9.9999999999999982
leaf_count=11 17 10 14 16 11 10
internal_value=0.00196629 0.00347222 0.00637255 0.00333333 0.0107143 -0.00357143
internal_weight=89 72 51 30 21 21
internal_count=89 72 51 30 21 21
is_linear=0
shrinkage=0.05


Tree=40
num_leaves=6
num_cat=0
split_feature=2 1 3 3 0
split_gain=0.353634 0.709142 0.466621 0.434586 0.00692641
threshold=10500.500000000002 144950.50000000003 4.0000000000000009 4.0000000000000009 2013.5000000000002
decision_type=2 2 2 2 2
left_child=4 2 -2 -3 -1
right_child=1 3 -4 -5 -6
leaf_value=10.183223062353841 326.31037894652104 -57.604677206144153 -62.694256365672757 -1.3443189477245143 25.3264343764159
leaf_weight=11.000000000000002 13.999999999999998 15.999999999999998 19 19 9.9999999999999982
leaf_count=11 14 16 19 19 10
internal_value=0.000280899 -0.00147059 0.00378788 -0.00642857 0.00595238
internal_weight=89 68 33 35 21
internal_count=89 68 33 35 21
is_linear=0
shrinkage=0.05


Tree=41
num_leaves=7
num_cat=0
split_feature=2 0 1 1 2 1
split_gain=0.28435 0.478058 0.404482 0.579789 0.14026 0.0974026
threshold=40192.500000000007 2015.5000000000002 150200.00000000003 201000.00000000003 29229.000000000004 180500.00000000003
decision_type=2 2 2 2 2 2
left_child=1 5 4 -4 -3 -1
right_child=-2 2 3 -5 -6 -7
leaf_value=-32.628163739201391 -59.559543547389154 20.216342694608471 -18.964581960758302 42.539430298842035 43.742571614895724 -21.102656351816918
leaf_weight=11.000000000000002 17 10.000000000000002 17.000000000000004 12.999999999999998 10.999999999999998 9.9999999999999982
leaf_count=11 17 10 17 13 11 10
internal_value=0.00140449 0.00277778 0.00539216 0.00166667 0.0107143 -0.00357143
internal_weight=89 72 51 30 21 21
internal_count=89 72 51 30 21 21
is_linear=0
shrinkage=0.05


Tree=42
num_leaves=7
num_cat=0
split_feature=2 0 1 1 2 1
split_gain=0.28435 0.478058 0.404482 0.579789 0.14026 0.0974026
threshold=40192.500000000007 2015.5000000000002 150200.00000000003 201000.00000000003 29229.000000000004 180500.00000000003
decision_type=2 2 2 2 2 2
left_child=1 5 4 -4 -3 -1
right_child=-2 2 3 -5 -6 -7
leaf_value=-30.996755552241325 -56.581566370019665 19.205525559878048 -18.016352862720396 40.412458783899915 41.55544303415094 -20.047523534226059
leaf_weight=11.000000000000002 17 10.000000000000002 17.000000000000004 12.999999999999998 10.999999999999998 9.9999999999999982
leaf_count=11 17 10 17 13 11 10
internal_value=0.00140449 0.00277778 0.00539216 0.00166667 0.0107143 -0.00357143
internal_weight=89 72 51 30 21 21
internal_count=89 72 51 30 21 21
is_linear=0
shrinkage=0.05


Tree=43
num_leaves=7
num_cat=0
split_feature=2 0 1 1 2 1
split_gain=0.341935 0.588352 0.269188 0.500595 0.14026 0.0974026
threshold=40192.500000000007 2015.5000000000002 150200.00000000003 190500.00000000003 29229.000000000004 180500.00000000003
decision_type=2 2 2 2 2 2
left_child=1 5 4 -4 -3 -1
right_child=-2 2 3 -5 -6 -7
leaf_value=-29.446917774629267 -53.752488051518689 18.245249281884146 -36.223712691633715 35.279287235117366 39.477670882443391 -19.045147357514747
leaf_weight=11.000000000000002 17 10.000000000000002 14.000000000000002 15.999999999999998 10.999999999999998 9.9999999999999982
leaf_count=11 17 10 14 16 11 10
internal_value=0.00196629 0.00347222 0.00637255 0.00333333 0.0107143 -0.00357143
internal_weight=89 72 51 30 21 21
internal_count=89 72 51 30 21 21
is_linear=0
shrinkage=0.05


Tree=44
num_leaves=6
num_cat=0
split_feature=2 1 3 3 0
split_gain=0.353634 0.709142 0.466621 0.434586 0.00692641
threshold=10500.500000000002 144950.50000000003 4.0000000000000009 4.0000000000000009 2013.5000000000002
decision_type=2 2 2 2 2
left_child=4 2 -2 -3 -1
right_child=1 3 -4 -5 -6
leaf_value=14.327653762539718 303.75607572262055 -51.38944397687019 -51.064863648942719 -1.1920206209202207 22.609216430737593
leaf_weight=11.000000000000002 13.999999999999998 15.999999999999998 19 19 9.9999999999999982
leaf_count=11 14 16 19 19 10
internal_value=0.000280899 -0.00147059 0.00378788 -0.00642857 0.00595238
internal_weight=89 68 33 35 21
internal_count=89 68 33 35 21
is_linear=0
shrinkage=0.05


Tree=45
num_leaves=7
num_cat=0
split_feature=2 0 1 1 2 1
split_gain=0.28435 0.478058 0.404482 0.579789 0.14026 0.0974026
threshold=40192.500000000007 2015.5000000000002 150200.00000000003 201000.00000000003 29229.000000000004 180500.00000000003
decision_type=2 2 2 2 2 2
left_child=1 5 4 -4 -3 -1
right_child=-2 2 3 -5 -6 -7
leaf_value=-28.690954574024797 -48.511620466495607 19.88623000023707 -15.244748553956676 35.497410661412232 40.057030520768365 -19.016311744470933
leaf_weight=11.000000000000002 17 10.000000000000002 17.000000000000004 12.999999999999998 10.999999999999998 9.9999999999999982
leaf_count=11 17 10 17 13 11 10
internal_value=0.00140449 0.00277778 0.00539216 0.00166667 0.0107143 -0.00357143
internal_weight=89 72 51 30 21 21
internal_count=89 72 51 30 21 21
is_linear=0
shrinkage=0.05


Tree=46
num_leaves=7
num_cat=0
split_feature=2 0 1 1 2 1
split_gain=0.28435 0.478058 0.404482 0.579789 0.14026 0.0974026
threshold=40192.500000000007 2015.5000000000002 150200.00000000003 201000.00000000003 29229.000000000004 180500.00000000003
decision_type=2 2 2 2 2 2
left_child=1 5 4 -4 -3 -1
right_child=-2 2 3 -5 -6 -7
leaf_value=-27.256406845323546 -46.086039443170833 18.891918500225216 -14.482511126258851 33.722540128341642 38.054178994729945 -18.065496157247392
leaf_weight=11.000000000000002 17 10.000000000000002 17.000000000000004 12.999999999999998 10.999999999999998 9.9999999999999982
leaf_count=11 17 10 17 13 11 10
internal_value=0.00140449 0.00277778 0.00539216 0.00166667 0.0107143 -0.00357143
internal_weight=89 72 51 30 21 21
internal_count=89 72 51 30 21 21
is_linear=0
shrinkage=0.05


Tree=47
num_leaves=7
num_cat=0
split_feature=2 1 2 1 3 1
split_gain=0.384334 0.862051 0.32 0.43956 0.346154 0.0964286
threshold=11778.000000000002 176750.00000000003 19076.500000000004 119423.00000000001 4.0000000000000009 219750.00000000003
decision_type=2 2 2 2 2 2
left_child=5 2 -2 4 -4 -1
right_child=1 -3 3 -5 -6 -7
leaf_value=5.0072351322499236 42.089325611385291 -49.464869346247092 284.66271146071466 -29.752192949395415 -43.781737471012278 28.923864512336969
leaf_weight=14.000000000000002 9.9999999999999982 14.999999999999998 13 13.999999999999998 13 9.9999999999999982
leaf_count=14 10 15 13 14 13 10
internal_value=0.000842697 -0.00115385 0.002 0 0.00384615 0.00625
internal_weight=89 65 50 40 26 24
internal_count=89 65 50 40 26 24
is_linear=0
shrinkage=0.05


Tree=48
num_leaves=7
num_cat=0
split_feature=2 0 1 1 2 1
split_gain=0.341935 0.588352 0.269188 0.500595 0.14026 0.0974026
threshold=40192.500000000007 2015.5000000000002 150200.00000000003 190500.00000000003 29229.000000000004 180500.00000000003
decision_type=2 2 2 2 2 2
left_child=1 5 4 -4 -3 -1
right_child=-2 2 3 -5 -6 -7
leaf_value=-26.14394825966988 -41.59265059746167 17.989632871704632 -31.427238864724956 27.477671286720124 38.340556918544067 -16.47560612482323
leaf_weight=11.000000000000002 17 10.000000000000002 14.000000000000002 15.999999999999998 10.999999999999998 9.9999999999999982
leaf_count=11 17 10 14 16 11 10
internal_value=0.00196629 0.00347222 0.00637255 0.00333333 0.0107143 -0.00357143
internal_weight=89 72 51 30 21 21
internal_count=89 72 51 30 21 21
is_linear=0
shrinkage=0.05


Tree=49
num_leaves=6
num_cat=0
split_feature=4 0 1 1 3
split_gain=0.365881 0.336626 0.287889 0.475668 0.535185
threshold=1.5000000000000002 2015.5000000000002 201000.00000000003 150200.00000000003 4.0000000000000009
decision_type=2 2 2 2 2
left_child=1 -1 3 4 -3
right_child=-2 2 -4 -5 -6
leaf_value=-33.080863860477407 56.73695245481597 169.61475822433229 41.110236927206692 -29.855876921488711 -157.67647092738315
leaf_weight=18 18 12 9.9999999999999982 15.999999999999998 15
leaf_count=18 18 12 10 16 15
internal_value=0.00196629 0.000352113 0.00235849 0.000581395 0.00462963
internal_weight=89 71 53 43 27
internal_count=89 71 53 43 27
is_linear=0
shrinkage=0.05


Tree=50
num_leaves=7
num_cat=0
split_feature=2 1 2 1 3 1
split_gain=0.384334 0.862051 0.32 0.43956 0.346154 0.0964286
threshold=11778.000000000002 176750.00000000003 19076.500000000004 119423.00000000001 4.0000000000000009 219750.00000000003
decision_type=2 2 2 2 2 2
left_child=5 2 -2 4 -4 -1
right_child=1 -3 3 -5 -6 -7
leaf_value=6.0552402661391405 43.049015120126711 -43.927470089624052 260.03181013053518 -31.422615184671219 -42.349865690329352 23.657607987833536
leaf_weight=14.000000000000002 9.9999999999999982 14.999999999999998 13 13.999999999999998 13 9.9999999999999982
leaf_count=14 10 15 13 14 13 10
internal_value=0.000842697 -0.00115385 0.002 0 0.00384615 0.00625
internal_weight=89 65 50 40 26 24
internal_count=89 65 50 40 26 24
is_linear=0
shrinkage=0.05


Tree=51
num_leaves=6
num_cat=0
split_feature=2 1 3 3 0
split_gain=0.353634 0.709142 0.466621 0.434586 0.00692641
threshold=10500.500000000002 144950.50000000003 4.0000000000000009 4.0000000000000009 2013.5000000000002
decision_type=2 2 2 2 2
left_child=4 2 -2 -3 -1
right_child=1 3 -4 -5 -6
leaf_value=18.816755981468056 247.03021962400845 -39.709138472396916 -40.232372405812932 -0.080270094044476548 18.608417383820179
leaf_weight=11.000000000000002 13.999999999999998 15.999999999999998 19 19 9.9999999999999982
leaf_count=11 14 16 19 19 10
internal_value=0.000280899 -0.00147059 0.00378788 -0.00642857 0.00595238
internal_weight=89 68 33 35 21
internal_count=89 68 33 35 21
is_linear=0
shrinkage=0.05


Tree=52
num_leaves=7
num_cat=0
split_feature=4 2 1 2 3 1
split_gain=0.506409 0.441037 0.61971 0.476168 0.315584 0.258235
threshold=1.5000000000000002 10500.500000000002 119423.00000000001 20766.500000000004 4.0000000000000009 176750.00000000003
decision_type=2 2 2 2 2 2
left_child=1 -1 4 5 -3 -4
right_child=-2 2 3 -5 -6 -7
leaf_value=17.204742606899753 50.288208562518463 234.67870864280803 14.784021244978476 -176.06508614141802 -145.66353547620687 -37.723681548777073
leaf_weight=15.999999999999998 18 10 11.000000000000002 10.999999999999998 11 11.999999999999998
leaf_count=16 18 10 11 11 11 12
internal_value=0.000842697 -0.00105634 -0.00318182 -0.00735294 0.00357143 -0.00326087
internal_weight=89 71 55 34 21 23
internal_count=89 71 55 34 21 23
is_linear=0
shrinkage=0.05


Tree=53
num_leaves=7
num_cat=0
split_feature=2 0 1 1 2 1
split_gain=0.341935 0.588352 0.269188 0.500595 0.14026 0.0974026
threshold=40192.500000000007 2015.5000000000002 150200.00000000003 190500.00000000003 29229.000000000004 180500.00000000003
decision_type=2 2 2 2 2 2
left_child=1 5 4 -4 -3 -1
right_child=-2 2 3 -5 -6 -7
leaf_value=-25.286544596387856 -40.735164213648204 19.597006879279071 -26.77289497942083 19.856982940015385 55.719641297603488 -12.015693844150917
leaf_weight=11.000000000000002 17 10.000000000000002 14.000000000000002 15.999999999999998 10.999999999999998 9.9999999999999982
leaf_count=11 17 10 14 16 11 10
internal_value=0.00196629 0.00347222 0.00637255 0.00333333 0.0107143 -0.00357143
internal_weight=89 72 51 30 21 21
internal_count=89 72 51 30 21 21
is_linear=0
shrinkage=0.05


Tree=54
num_leaves=7
num_cat=0
split_feature=0 2 1 1 1 2
split_gain=0.409027 0.449424 0.353956 0.745588 0.0974026 0.0969697
threshold=2015.5000000000002 42097.500000000007 150200.00000000003 190500.00000000003 180500.00000000003 29229.000000000004
decision_type=2 2 2 2 2 2
left_child=4 2 5 -4 -1 -2
right_child=1 -3 3 -5 -6 -7
leaf_value=-24.022217366568455 18.617156535315111 -143.23441140958263 -36.52081083511311 16.969339720507744 -11.41490915194337 52.933659232723315
leaf_weight=11.000000000000002 10.000000000000002 13.999999999999998 14.999999999999998 17 9.9999999999999982 11.999999999999998
leaf_count=11 10 14 15 17 10 12
internal_value=0.00252809 0.00441176 0.00648148 0.003125 -0.00357143 0.0113636
internal_weight=89 68 54 32 21 22
internal_count=89 68 54 32 21 22
is_linear=0
shrinkage=0.05


Tree=55
num_leaves=6
num_cat=0
split_feature=4 0 1 1 3
split_gain=0.365881 0.336626 0.287889 0.475668 0.535185
threshold=1.5000000000000002 2015.5000000000002 201000.00000000003 150200.00000000003 4.0000000000000009
decision_type=2 2 2 2 2
left_child=1 -1 3 4 -3
right_child=-2 2 -4 -5 -6
leaf_value=-27.7325578535138 44.102111535769495 120.3752967946251 34.239870548892576 -23.608209688694132 -143.81302372891287
leaf_weight=18 18 12 9.9999999999999982 15.999999999999998 15
leaf_count=18 18 12 10 16 15
internal_value=0.00196629 0.000352113 0.00235849 0.000581395 0.00462963
internal_weight=89 71 53 43 27
internal_count=89 71 53 43 27
is_linear=0
shrinkage=0.05


Tree=56
num_leaves=7
num_cat=0
split_feature=2 1 2 1 3 1
split_gain=0.384334 0.862051 0.32 0.43956 0.346154 0.0964286
threshold=11778.000000000002 176750.00000000003 19076.500000000004 119423.00000000001 4.0000000000000009 219750.00000000003
decision_type=2 2 2 2 2 2
left_child=5 2 -2 4 -4 -1
right_child=1 -3 3 -5 -6 -7
leaf_value=6.7456657761380034 45.497194291193892 -42.224845650543557 211.49334334442003 -20.854961812396706 -33.741791009275133 16.057117254872697
leaf_weight=14.000000000000002 9.9999999999999982 14.999999999999998 13 13.999999999999998 13 9.9999999999999982
leaf_count=14 10 15 13 14 13 10
internal_value=0.000842697 -0.00115385 0.002 0 0.00384615 0.00625
internal_weight=89 65 50 40 26 24
internal_count=89 65 50 40 26 24
is_linear=0
shrinkage=0.05


Tree=57
num_leaves=7
num_cat=0
split_feature=1 1 3 1 3 2
split_gain=0.4354 0.56893 0.516743 0.956277 0.466621 0.326667
threshold=187500.00000000003 144950.50000000003 4.0000000000000009 161750.00000000003 4.0000000000000009 11778.000000000002
decision_type=2 2 2 2 2 2
left_child=1 4 -3 -4 -1 -2
right_child=5 2 3 -5 -6 -7
leaf_value=200.91867617719902 13.606023344294137 -34.282816653725078 -21.771761894371252 107.00257229095519 -32.054701458811358 -14.368406552127352
leaf_weight=13.999999999999998 15.000000000000002 10.000000000000002 11.000000000000002 9.9999999999999982 19 9.9999999999999982
leaf_count=14 15 10 11 10 19 10
internal_value=0.00140449 -0.00078125 -0.00564516 -0.00119048 0.00378788 0.007
internal_weight=89 64 31 21 33 25
internal_count=89 64 31 21 33 25
is_linear=0
shrinkage=0.05


Tree=58
num_leaves=7
num_cat=0
split_feature=1 1 3 1 2 3
split_gain=0.527219 0.400843 0.516743 0.956277 0.326667 0.23069
threshold=187500.00000000003 144950.50000000003 4.0000000000000009 161750.00000000003 11778.000000000002 4.0000000000000009
decision_type=2 2 2 2 2 2
left_child=1 5 -3 -4 -2 -1
right_child=4 2 3 -5 -6 -7
leaf_value=190.872742368339 12.925722177079434 -32.568675821038823 -20.683173799652696 101.65244367640742 -13.64998622452098 -30.451966385870811
leaf_weight=13.999999999999998 15.000000000000002 10.000000000000002 11.000000000000002 9.9999999999999982 9.9999999999999982 19
leaf_count=14 15 10 11 10 10 19
internal_value=0.000842697 -0.0015625 -0.00564516 -0.00119048 0.007 0.00227273
internal_weight=89 64 31 21 25 33
internal_count=89 64 31 21 25 33
is_linear=0
shrinkage=0.05


Tree=59
num_leaves=6
num_cat=0
split_feature=4 2 2 1 2
split_gain=0.433296 0.360115 0.541126 0.556914 0.384314
threshold=1.5000000000000002 10500.500000000002 24954.500000000004 154475.00000000003 40192.500000000007
decision_type=2 2 2 2 2
left_child=1 -1 3 -3 -4
right_child=-2 2 4 -5 -6
leaf_value=11.47893760806037 34.816255897831461 -50.430766918121464 56.527750805314213 -0.51484872537043891 -228.60562211657685
leaf_weight=15.999999999999998 18 11.000000000000002 17.000000000000004 17 9.9999999999999982
leaf_count=16 18 11 17 17 10
internal_value=0.00140449 -0.000352113 -0.00227273 -0.00714286 0.00277778
internal_weight=89 71 55 28 27
internal_count=89 71 55 28 27
is_linear=0
shrinkage=0.05


Tree=60
num_leaves=6
num_cat=0
split_feature=4 2 0 2 1
split_gain=0.585219 0.530154 0.441052 0.24891 0.258235
threshold=1.5000000000000002 10500.500000000002 2021.5000000000002 20766.500000000004 176750.00000000003
decision_type=2 2 2 2 2
left_child=1 -1 3 4 -3
right_child=-2 2 -4 -5 -6
leaf_value=10.904990727657344 33.075443102939907 22.696775222026009 59.463662859964941 -99.002064791337745 -27.877138712436306
leaf_weight=15.999999999999998 18 11.000000000000002 13.999999999999998 18 11.999999999999998
leaf_count=16 18 11 14 18 12
internal_value=0.000280899 -0.00176056 -0.00409091 -0.00670732 -0.00326087
internal_weight=89 71 55 41 23
internal_count=89 71 55 41 23
is_linear=0
shrinkage=0.05


Tree=61
num_leaves=6
num_cat=0
split_feature=2 1 2 2 1
split_gain=0.308621 0.992821 0.335873 0.214998 0.0964286
threshold=11778.000000000002 176750.00000000003 42097.500000000007 24954.500000000004 219750.00000000003
decision_type=2 2 2 2 2
left_child=4 2 3 -2 -1
right_child=1 -3 -4 -5 -6
leaf_value=4.9416335927160624 21.561936460924699 -37.29308435729363 -126.23623858518104 56.490479716966696 11.670783432648136
leaf_weight=14.000000000000002 17 14.999999999999998 13.999999999999998 19 9.9999999999999982
leaf_count=14 17 15 14 19 10
internal_value=0.00140449 -0.000384615 0.003 0.00555556 0.00625
internal_weight=89 65 50 36 24
internal_count=89 65 50 36 24
is_linear=0
shrinkage=0.05


Tree=62
num_leaves=6
num_cat=0
split_feature=4 2 1 2 2
split_gain=0.365881 0.402349 0.497356 0.166483 0.366495
threshold=1.5000000000000002 11778.000000000002 176750.00000000003 40192.500000000007 24954.500000000004
decision_type=2 2 2 2 2
left_child=1 -1 3 4 -3
right_child=-2 2 -4 -5 -6
leaf_value=8.7314348592764421 29.470360543345603 -8.8678607671998755 -35.428430139428933 -213.8367122244872 53.665955731118359
leaf_weight=19 18 14.000000000000002 10.999999999999998 9.9999999999999982 17
leaf_count=19 18 14 11 10 17
internal_value=0.00196629 0.000352113 -0.00192308 0.000609756 0.00241935
internal_weight=89 71 52 41 31
internal_count=89 71 52 41 31
is_linear=0
shrinkage=0.05


Tree=63
num_leaves=7
num_cat=0
split_feature=2 1 2 0 2 1
split_gain=0.468345 0.740513 0.405 0.620768 0.191645 0.0964286
threshold=11778.000000000002 176750.00000000003 19076.500000000004 2019.5000000000002 42097.500000000007 219750.00000000003
decision_type=2 2 2 2 2 2
left_child=5 2 -2 -4 -5 -1
right_child=1 -3 3 4 -6 -7
leaf_value=4.2579801701164346 37.933446379800216 -33.657008632457476 -6.1075797283437172 50.982657944562447 -27.485659114524061 10.132199375950178
leaf_weight=14.000000000000002 9.9999999999999982 14.999999999999998 10.999999999999998 16.000000000000004 12.999999999999998 9.9999999999999982
leaf_count=14 10 15 11 16 13 10
internal_value=0.000280899 -0.00192308 0.001 -0.00125 0.00258621 0.00625
internal_weight=89 65 50 40 29 24
internal_count=89 65 50 40 29 24
is_linear=0
shrinkage=0.05


Tree=64
num_leaves=7
num_cat=0
split_feature=1 1 3 1 2 3
split_gain=0.527219 0.400843 0.516743 0.956277 0.326667 0.23069
threshold=187500.00000000003 144950.50000000003 4.0000000000000009 161750.00000000003 11778.000000000002 4.0000000000000009
decision_type=2 2 2 2 2 2
left_child=1 5 -3 -4 -2 -1
right_child=4 2 3 -5 -6 -7
leaf_value=167.47257989702567 9.6176600462595161 -30.537598750977807 -21.664763957561377 93.741710854386881 -10.258523312979419 -26.111376158797839
leaf_weight=13.999999999999998 15.000000000000002 10.000000000000002 11.000000000000002 9.9999999999999982 9.9999999999999982 19
leaf_count=14 15 10 11 10 10 19
internal_value=0.000842697 -0.0015625 -0.00564516 -0.00119048 0.007 0.00227273
internal_weight=89 64 31 21 25 33
internal_count=89 64 31 21 25 33
is_linear=0
shrinkage=0.05


Tree=65
num_leaves=6
num_cat=0
split_feature=4 2 0 2 1
split_gain=0.585219 0.530154 0.441052 0.24891 0.258235
threshold=1.5000000000000002 10500.500000000002 2021.5000000000002 20766.500000000004 176750.00000000003
decision_type=2 2 2 2 2
left_child=1 -1 3 4 -3
right_child=-2 2 -4 -5 -6
leaf_value=8.667221531711915 26.819250105950005 20.336129165188325 49.739093855274213 -100.58203628385434 -20.144452568756563
leaf_weight=15.999999999999998 18 11.000000000000002 13.999999999999998 18 11.999999999999998
leaf_count=16 18 11 14 18 12
internal_value=0.000280899 -0.00176056 -0.00409091 -0.00670732 -0.00326087
internal_weight=89 71 55 41 23
internal_count=89 71 55 41 23
is_linear=0
shrinkage=0.05


Tree=66
num_leaves=6
num_cat=0
split_feature=2 1 2 2 1
split_gain=0.308621 0.992821 0.335873 0.214998 0.0964286
threshold=11778.000000000002 176750.00000000003 42097.500000000007 24954.500000000004 219750.00000000003
decision_type=2 2 2 2 2
left_child=4 2 3 -2 -1
right_child=1 -3 -4 -5 -6
leaf_value=1.7480276650205611 19.319322706928915 -30.454009406747812 -114.54937469925797 47.252139162510503 8.2575446138981317
leaf_weight=14.000000000000002 17 14.999999999999998 13.999999999999998 19 9.9999999999999982
leaf_count=14 17 15 14 19 10
internal_value=0.00140449 -0.000384615 0.003 0.00555556 0.00625
internal_weight=89 65 50 36 24
internal_count=89 65 50 36 24
is_linear=0
shrinkage=0.05


Tree=67
num_leaves=7
num_cat=0
split_feature=1 2 0 2 0 1
split_gain=0.4354 0.326667 0.306845 0.249723 0.270903 0.321405
threshold=187500.00000000003 11778.000000000002 2022.5000000000002 29229.000000000004 2015.5000000000002 150200.00000000003
decision_type=2 2 2 2 2 2
left_child=2 -2 3 4 -1 -6
right_child=1 -3 -4 -5 5 -7
leaf_value=-21.102288219519938 7.6610448378543659 -8.389766615422884 154.24938925128518 -160.2712775215428 10.17433361987587 -13.537562444053856
leaf_weight=12.999999999999998 15.000000000000002 9.9999999999999982 10.999999999999998 17 10.000000000000002 12.999999999999998
leaf_count=13 15 10 11 17 10 13
internal_value=0.00140449 0.007 -0.00078125 -0.00235849 0 0.00326087
internal_weight=89 25 64 53 36 23
internal_count=89 25 64 53 36 23
is_linear=0
shrinkage=0.05


Tree=68
num_leaves=6
num_cat=0
split_feature=4 2 1 2 2
split_gain=0.365881 0.402349 0.497356 0.166483 0.366495
threshold=1.5000000000000002 11778.000000000002 176750.00000000003 40192.500000000007 24954.500000000004
decision_type=2 2 2 2 2
left_child=1 -1 3 4 -3
right_child=-2 2 -4 -5 -6
leaf_value=3.9292305162268351 24.342981456188593 -11.741047530388256 -28.511820605639286 -189.21094693132045 52.90309608046212
leaf_weight=19 18 14.000000000000002 10.999999999999998 9.9999999999999982 17
leaf_count=19 18 14 11 10 17
internal_value=0.00196629 0.000352113 -0.00192308 0.000609756 0.00241935
internal_weight=89 71 52 41 31
internal_count=89 71 52 41 31
is_linear=0
shrinkage=0.05


Tree=69
num_leaves=6
num_cat=0
split_feature=4 2 0 2 1
split_gain=0.585219 0.530154 0.441052 0.24891 0.258235
threshold=1.5000000000000002 10500.500000000002 2021.5000000000002 20766.500000000004 176750.00000000003
decision_type=2 2 2 2 2
left_child=1 -1 3 4 -3
right_child=-2 2 -4 -5 -6
leaf_value=7.4042073804492929 23.12583238337918 18.431692267108087 50.257941276439013 -96.215475232670329 -15.640755213212458
leaf_weight=15.999999999999998 18 11.000000000000002 13.999999999999998 18 11.999999999999998
leaf_count=16 18 11 14 18 12
internal_value=0.000280899 -0.00176056 -0.00409091 -0.00670732 -0.00326087
internal_weight=89 71 55 41 23
internal_count=89 71 55 41 23
is_linear=0
shrinkage=0.05


Tree=70
num_leaves=6
num_cat=0
split_feature=2 1 2 2 1
split_gain=0.308621 0.992821 0.335873 0.214998 0.0964286
threshold=11778.000000000002 176750.00000000003 42097.500000000007 24954.500000000004 219750.00000000003
decision_type=2 2 2 2 2
left_child=4 2 3 -2 -1
right_child=1 -3 -4 -5 -6
leaf_value=2.0061095363189225 17.510107653752677 -26.304191814696697 -106.38425396215578 47.74504421261706 5.991558847904435
leaf_weight=14.000000000000002 17 14.999999999999998 13.999999999999998 19 9.9999999999999982
leaf_count=14 17 15 14 19 10
internal_value=0.00140449 -0.000384615 0.003 0.00555556 0.00625
internal_weight=89 65 50 36 24
internal_count=89 65 50 36 24
is_linear=0
shrinkage=0.05


Tree=71
num_leaves=6
num_cat=0
split_feature=4 2 1 2 2
split_gain=0.365881 0.402349 0.497356 0.166483 0.366495
threshold=1.5000000000000002 11778.000000000002 176750.00000000003 40192.500000000007 24954.500000000004
decision_type=2 2 2 2 2
left_child=1 -1 3 4 -3
right_child=-2 2 -4 -5 -6
leaf_value=3.2622531445770848 21.381999101668772 -10.084905962417441 -24.988982223961877 -176.94408395046855 45.357792001986212
leaf_weight=19 18 14.000000000000002 10.999999999999998 9.9999999999999982 17
leaf_count=19 18 14 11 10 17
internal_value=0.00196629 0.000352113 -0.00192308 0.000609756 0.00241935
internal_weight=89 71 52 41 31
internal_count=89 71 52 41 31
is_linear=0
shrinkage=0.05


Tree=72
num_leaves=7
num_cat=0
split_feature=2 1 2 0 2 1
split_gain=0.468345 0.740513 0.405 0.620768 0.191645 0.0964286
threshold=11778.000000000002 176750.00000000003 19076.500000000004 2019.5000000000002 42097.500000000007 219750.00000000003
decision_type=2 2 2 2 2 2
left_child=5 2 -2 -4 -5 -1
right_child=1 -3 3 4 -6 -7
leaf_value=1.7426914022741131 32.44498446541909 -23.739533112763777 -5.5948446853391944 43.089902401886896 -26.255098532710875 5.0758745993530745
leaf_weight=14.000000000000002 9.9999999999999982 14.999999999999998 10.999999999999998 16.000000000000004 12.999999999999998 9.9999999999999982
leaf_count=14 10 15 11 16 13 10
internal_value=0.000280899 -0.00192308 0.001 -0.00125 0.00258621 0.00625
internal_weight=89 65 50 40 29 24
internal_count=89 65 50 40 29 24
is_linear=0
shrinkage=0.05


Tree=73
num_leaves=7
num_cat=0
split_feature=1 0 3 1 2 2
split_gain=0.627816 0.445996 0.767192 0.609107 0.366214 0.326667
threshold=187500.00000000003 2022.5000000000002 4.0000000000000009 161750.00000000003 24954.500000000004 11778.000000000002
decision_type=2 2 2 2 2 2
left_child=1 2 -1 4 -4 -2
right_child=5 -3 3 -5 -6 -7
leaf_value=-7.9720872591698653 6.3607679969693436 134.56923099005127 -31.570077694832889 87.046220979702639 40.93540728179255 -5.4608234107392892
leaf_weight=13.999999999999998 15.000000000000002 10.999999999999998 16.000000000000004 9.9999999999999982 12.999999999999998 9.9999999999999982
leaf_count=14 15 11 16 10 13 10
internal_value=0.000280899 -0.00234375 -0.00424528 -0.000641026 -0.00431034 0.007
internal_weight=89 64 53 39 29 25
internal_count=89 64 53 39 29 25
is_linear=0
shrinkage=0.05


Tree=74
num_leaves=7
num_cat=0
split_feature=1 0 3 1 2 1
split_gain=0.474719 0.540643 0.395085 0.384091 0.230769 0.181818
threshold=187500.00000000003 2021.5000000000002 4.0000000000000009 161750.00000000003 10500.500000000002 144950.50000000003
decision_type=2 2 2 2 2 2
left_child=1 2 -1 5 -2 -4
right_child=4 -3 3 -5 -6 -7
leaf_value=-4.9164980881137126 6.3221505922856069 38.888636917702925 -169.1718737390307 82.693909930717496 0.45877790949505198 -19.385894522794615
leaf_weight=12.999999999999998 13.000000000000002 19 11.000000000000002 9.9999999999999982 11.999999999999998 10.999999999999998
leaf_count=13 13 19 11 10 12 11
internal_value=-0.000842697 -0.003125 -0.00611111 -0.003125 0.005 -0.00681818
internal_weight=89 64 45 32 25 22
internal_count=89 64 45 32 25 22
is_linear=0
shrinkage=0.05


Tree=75
num_leaves=7
num_cat=0
split_feature=1 0 3 1 2 1
split_gain=0.474719 0.540643 0.395085 0.384091 0.230769 0.181818
threshold=187500.00000000003 2021.5000000000002 4.0000000000000009 161750.00000000003 10500.500000000002 144950.50000000003
decision_type=2 2 2 2 2 2
left_child=1 2 -1 5 -2 -4
right_child=4 -3 3 -5 -6 -7
leaf_value=-4.6706731837080042 6.0060430626713242 36.944205071817777 -160.71328005207917 78.559214434181627 0.43583901402030278 -18.416599796654875
leaf_weight=12.999999999999998 13.000000000000002 19 11.000000000000002 9.9999999999999982 11.999999999999998 10.999999999999998
leaf_count=13 13 19 11 10 12 11
internal_value=-0.000842697 -0.003125 -0.00611111 -0.003125 0.005 -0.00681818
internal_weight=89 64 45 32 25 22
internal_count=89 64 45 32 25 22
is_linear=0
shrinkage=0.05


Tree=76
num_leaves=7
num_cat=0
split_feature=0 1 1 1 2 2
split_gain=0.427163 0.510504 0.507519 0.270563 0.24975 0.0742424
threshold=2015.5000000000002 201000.00000000003 150200.00000000003 180500.00000000003 42097.500000000007 29229.000000000004
decision_type=2 2 2 2 2 2
left_child=3 2 4 -1 5 -2
right_child=1 -3 -4 -5 -6 -7
leaf_value=-17.495769806822125 16.872068107542169 3.8876327867891178 -11.720097265810773 -2.9652309419798315 -35.462447255053938 35.096994818226889
leaf_weight=11.000000000000002 10.000000000000002 13.999999999999998 19 9.9999999999999982 12.999999999999998 11.999999999999998
leaf_count=11 10 14 19 10 13 12
internal_value=0.000280899 0.00220588 0 -0.00595238 0.00357143 0.00681818
internal_weight=89 68 54 21 35 22
internal_count=89 68 54 21 35 22
is_linear=0
shrinkage=0.05


Tree=77
num_leaves=7
num_cat=0
split_feature=1 0 3 1 2 1
split_gain=0.737191 0.540643 0.395085 0.384091 0.326667 0.181818
threshold=187500.00000000003 2021.5000000000002 4.0000000000000009 161750.00000000003 11778.000000000002 144950.50000000003
decision_type=2 2 2 2 2 2
left_child=1 2 -1 5 -2 -4
right_child=4 -3 3 -5 -6 -7
leaf_value=-5.2807429298997706 5.5113592701983185 33.342145077315543 -154.43246579038654 75.361650389288357 -5.2555731324983244 -16.620981316481018
leaf_weight=12.999999999999998 15.000000000000002 19 11.000000000000002 9.9999999999999982 9.9999999999999982 10.999999999999998
leaf_count=13 15 19 11 10 10 11
internal_value=-0.000280899 -0.003125 -0.00611111 -0.003125 0.007 -0.00681818
internal_weight=89 64 45 32 25 22
internal_count=89 64 45 32 25 22
is_linear=0
shrinkage=0.05


Tree=78
num_leaves=7
num_cat=0
split_feature=1 0 3 1 2 1
split_gain=0.737191 0.540643 0.395085 0.384091 0.326667 0.181818
threshold=187500.00000000003 2021.5000000000002 4.0000000000000009 161750.00000000003 11778.000000000002 144950.50000000003
decision_type=2 2 2 2 2 2
left_child=1 2 -1 5 -2 -4
right_child=4 -3 3 -5 -6 -7
leaf_value=-5.0167057834048139 5.235791306688407 31.675037823449767 -146.71084250086719 71.593567869823929 -4.99279447587341 -15.789932250656967
leaf_weight=12.999999999999998 15.000000000000002 19 11.000000000000002 9.9999999999999982 9.9999999999999982 10.999999999999998
leaf_count=13 15 19 11 10 10 11
internal_value=-0.000280899 -0.003125 -0.00611111 -0.003125 0.007 -0.00681818
internal_weight=89 64 45 32 25 22
internal_count=89 64 45 32 25 22
is_linear=0
shrinkage=0.05


Tree=79
num_leaves=7
num_cat=0
split_feature=1 0 3 1 2 1
split_gain=0.474719 0.540643 0.395085 0.384091 0.230769 0.181818
threshold=187500.00000000003 2021.5000000000002 4.0000000000000009 161750.00000000003 10500.500000000002 144950.50000000003
decision_type=2 2 2 2 2 2
left_child=1 2 -1 5 -2 -4
right_child=4 -3 3 -5 -6 -7
leaf_value=-4.7658704942346048 5.0372239326276942 30.091285932277277 -139.37530037582385 68.013889476332736 0.10421833069190144 -15.000435638124124
leaf_weight=12.999999999999998 13.000000000000002 19 11.000000000000002 9.9999999999999982 11.999999999999998 10.999999999999998
leaf_count=13 13 19 11 10 12 11
internal_value=-0.000842697 -0.003125 -0.00611111 -0.003125 0.005 -0.00681818
internal_weight=89 64 45 32 25 22
internal_count=89 64 45 32 25 22
is_linear=0
shrinkage=0.05


Tree=80
num_leaves=7
num_cat=0
split_feature=0 1 1 1 2 2
split_gain=0.427163 0.510504 0.507519 0.270563 0.24975 0.0742424
threshold=2015.5000000000002 201000.00000000003 150200.00000000003 180500.00000000003 42097.500000000007 29229.000000000004
decision_type=2 2 2 2 2 2
left_child=3 2 4 -1 5 -2
right_child=1 -3 -4 -5 -6 -7
leaf_value=-19.276628246426732 19.249819191127383 2.9633609974218302 -8.7635249422571402 -2.9579750256767059 -38.444748333953434 28.586721635663412
leaf_weight=11.000000000000002 10.000000000000002 13.999999999999998 19 9.9999999999999982 12.999999999999998 11.999999999999998
leaf_count=11 10 14 19 10 13 12
internal_value=0.000280899 0.00220588 0 -0.00595238 0.00357143 0.00681818
internal_weight=89 68 54 21 35 22
internal_count=89 68 54 21 35 22
is_linear=0
shrinkage=0.05


Tree=81
num_leaves=7
num_cat=0
split_feature=1 0 3 1 2 1
split_gain=0.737191 0.540643 0.395085 0.384091 0.326667 0.181818
threshold=187500.00000000003 2021.5000000000002 4.0000000000000009 161750.00000000003 11778.000000000002 144950.50000000003
decision_type=2 2 2 2 2 2
left_child=1 2 -1 5 -2 -4
right_child=4 -3 3 -5 -6 -7
leaf_value=-5.4900679290792143 4.5739724948515237 27.157385553880239 -133.83587143881581 65.314198832233203 -4.748500317907963 -13.286582443896577
leaf_weight=12.999999999999998 15.000000000000002 19 11.000000000000002 9.9999999999999982 9.9999999999999982 10.999999999999998
leaf_count=13 15 19 11 10 10 11
internal_value=-0.000280899 -0.003125 -0.00611111 -0.003125 0.007 -0.00681818
internal_weight=89 64 45 32 25 22
internal_count=89 64 45 32 25 22
is_linear=0
shrinkage=0.05


Tree=82
num_leaves=7
num_cat=0
split_feature=2 0 3 1 2 0
split_gain=0.427163 0.427456 1.04004 0.576923 0.420746 0.00692641
threshold=10500.500000000002 2022.5000000000002 2.5000000000000004 154475.00000000003 24954.500000000004 2013.5000000000002
decision_type=2 2 2 2 2 2
left_child=5 2 -2 4 -4 -1
right_child=1 -3 3 -5 -6 -7
leaf_value=4.7045628625375686 -6.4574116030544593 114.75164879903195 -42.032928754569269 15.875484556960124 25.799516276186228 2.5271657473602773
leaf_weight=11.000000000000002 18 10.999999999999998 11.000000000000002 14.999999999999998 12.999999999999998 9.9999999999999982
leaf_count=11 18 11 11 15 13 10
internal_value=-0.000280899 -0.00220588 -0.00394737 0.000641026 -0.00416667 0.00595238
internal_weight=89 68 57 39 24 21
internal_count=89 68 57 39 24 21
is_linear=0
shrinkage=0.05


Tree=83
num_leaves=7
num_cat=0
split_feature=1 0 3 1 2 1
split_gain=0.474719 0.540643 0.395085 0.384091 0.230769 0.181818
threshold=187500.00000000003 2021.5000000000002 4.0000000000000009 161750.00000000003 10500.500000000002 144950.50000000003
decision_type=2 2 2 2 2 2
left_child=1 2 -1 5 -2 -4
right_child=4 -3 3 -5 -6 -7
leaf_value=-4.8926939524725643 4.4693347194106989 24.509540462376918 -128.43405368068434 61.533987705134102 -0.22013893581201957 -12.857481464828631
leaf_weight=12.999999999999998 13.000000000000002 19 11.000000000000002 9.9999999999999982 11.999999999999998 10.999999999999998
leaf_count=13 13 19 11 10 12 11
internal_value=-0.000842697 -0.003125 -0.00611111 -0.003125 0.005 -0.00681818
internal_weight=89 64 45 32 25 22
internal_count=89 64 45 32 25 22
is_linear=0
shrinkage=0.05


Tree=84
num_leaves=7
num_cat=0
split_feature=2 0 3 0 2 0
split_gain=0.427163 0.427456 0.540036 0.322955 0.315584 0.00692641
threshold=10500.500000000002 2022.5000000000002 2.5000000000000004 2018.5000000000002 32006.000000000004 2013.5000000000002
decision_type=2 2 2 2 2 2
left_child=5 2 -2 -4 -5 -1
right_child=1 -3 3 4 -6 -7
leaf_value=4.2458679834401662 -5.8899063252781305 107.78858933596149 -13.810714842616257 169.35376918713533 -170.81593656074193 2.1773407240217013
leaf_weight=11.000000000000002 18 10.999999999999998 18 10.000000000000002 10.999999999999998 9.9999999999999982
leaf_count=11 18 11 18 10 11 10
internal_value=-0.000280899 -0.00220588 -0.00394737 -0.000641026 0.00357143 0.00595238
internal_weight=89 68 57 39 21 21
internal_count=89 68 57 39 21 21
is_linear=0
shrinkage=0.05


Tree=85
num_leaves=7
num_cat=0
split_feature=1 1 2 3 0 2
split_gain=0.4354 0.336939 0.326667 0.212019 0.2 0.11777
threshold=187500.00000000003 171500.00000000003 11778.000000000002 4.0000000000000009 2022.5000000000002 24954.500000000004
decision_type=2 2 2 2 2 2
left_child=1 3 -2 4 -1 -5
right_child=2 -3 -4 5 -6 -7
leaf_value=-0.72551786665349027 3.8865818105693055 -61.405765309606068 -0.31787410691910056 -12.426900790759204 198.31413452474521 31.824860267295165
leaf_weight=10.000000000000002 15.000000000000002 11.999999999999998 9.9999999999999982 17 9.9999999999999982 14.999999999999998
leaf_count=10 15 12 10 17 10 15
internal_value=0.00140449 -0.00078125 0.007 0.000961538 0.005 -0.0015625
internal_weight=89 64 25 52 20 32
internal_count=89 64 25 52 20 32
is_linear=0
shrinkage=0.05


Tree=86
num_leaves=7
num_cat=0
split_feature=2 0 1 0 1 0
split_gain=0.287044 0.567964 0.73711 0.492601 0.49641 0.00692641
threshold=10500.500000000002 2018.5000000000002 176750.00000000003 2020.5000000000002 54500.000000000007 2013.5000000000002
decision_type=2 2 2 2 2 2
left_child=5 2 -2 -3 -5 -1
right_child=1 3 -4 4 -6 -7
leaf_value=3.8392454937396909 15.765834951466514 43.321539027884711 -58.318507913117685 30.233617253930404 -94.386248520704498 1.8741445972921384
leaf_weight=11.000000000000002 15.000000000000002 13.999999999999998 13.999999999999998 13.000000000000002 11.999999999999998 9.9999999999999982
leaf_count=11 15 14 14 13 12 10
internal_value=0.000842697 -0.000735294 -0.00603448 0.00320513 -0.001 0.00595238
internal_weight=89 68 29 39 25 21
internal_count=89 68 29 39 25 21
is_linear=0
shrinkage=0.05


Tree=87
num_leaves=7
num_cat=0
split_feature=1 1 3 1 1 3
split_gain=0.309691 0.400843 0.516743 0.292641 0.230769 0.23069
threshold=187500.00000000003 144950.50000000003 4.0000000000000009 161750.00000000003 219750.00000000003 4.0000000000000009
decision_type=2 2 2 2 2 2
left_child=1 5 -3 -4 -2 -1
right_child=4 2 3 -5 -6 -7
leaf_value=97.20276556896134 6.9016847170767965 -16.435496027551221 -11.997518025908233 61.276570745706934 1.5768358138704117 -53.335793000879676
leaf_weight=13.999999999999998 13.000000000000002 10.000000000000002 11.000000000000002 9.9999999999999982 11.999999999999998 19
leaf_count=14 13 10 11 10 12 19
internal_value=0.000280899 -0.0015625 -0.00564516 -0.00119048 0.005 0.00227273
internal_weight=89 64 31 21 25 33
internal_count=89 64 31 21 25 33
is_linear=0
shrinkage=0.05


Tree=88
num_leaves=7
num_cat=0
split_feature=1 0 3 1 2 1
split_gain=0.387816 0.445996 0.767192 0.310256 0.420746 0.230769
threshold=187500.00000000003 2022.5000000000002 4.0000000000000009 154475.00000000003 24954.500000000004 219750.00000000003
decision_type=2 2 2 2 2 2
left_child=1 2 -1 4 -4 -2
right_child=5 -3 3 -5 -6 -7
leaf_value=-5.8798278222354838 6.5566004812229499 92.342627290513349 -38.164943308208514 11.913714666607849 31.38872604127787 1.497994023176898
leaf_weight=13.999999999999998 13.000000000000002 10.999999999999998 11.000000000000002 14.999999999999998 12.999999999999998 11.999999999999998
leaf_count=14 13 11 11 15 13 12
internal_value=-0.000280899 -0.00234375 -0.00424528 -0.000641026 -0.00416667 0.005
internal_weight=89 64 53 39 24 25
internal_count=89 64 53 39 24 25
is_linear=0
shrinkage=0.05


Tree=89
num_leaves=7
num_cat=0
split_feature=2 1 0 0 2 1
split_gain=0.33713 0.702689 0.433929 0.182751 0.142857 0.05
threshold=20766.500000000004 119423.00000000001 2015.5000000000002 2022.5000000000002 16070.500000000002 180500.00000000003
decision_type=2 2 2 2 2 2
left_child=2 3 5 -2 -4 -1
right_child=1 -3 4 -5 -6 -7
leaf_value=-18.93862192051915 -9.6717266801621022 -29.863776685361486 2.5916519694197064 87.725495925987715 31.746830834883781 -1.9675848043380542
leaf_weight=10.000000000000002 15.000000000000002 14.999999999999998 14.000000000000002 10.999999999999998 13.999999999999998 9.9999999999999982
leaf_count=10 15 15 14 11 14 10
internal_value=0.000280899 -0.00304878 0.003125 0.00192308 0.00714286 -0.0025
internal_weight=89 41 48 26 28 20
internal_count=89 41 48 26 28 20
is_linear=0
shrinkage=0.05


Tree=90
num_leaves=7
num_cat=0
split_feature=1 1 1 3 0 2
split_gain=0.240344 0.336939 0.230769 0.212019 0.2 0.11777
threshold=187500.00000000003 171500.00000000003 219750.00000000003 4.0000000000000009 2022.5000000000002 24954.500000000004
decision_type=2 2 2 2 2 2
left_child=1 3 -2 4 -1 -5
right_child=2 -3 -4 5 -6 -7
leaf_value=0.35537425084423835 7.7219592914298802 -60.953214977116161 1.2935117235470444 -11.046396761917254 176.13869914090415 30.30287607322208
leaf_weight=10.000000000000002 13.000000000000002 11.999999999999998 11.999999999999998 17 9.9999999999999982 14.999999999999998
leaf_count=10 13 12 12 17 10 15
internal_value=0.000842697 -0.00078125 0.005 0.000961538 0.005 -0.0015625
internal_weight=89 64 25 52 20 32
internal_count=89 64 25 52 20 32
is_linear=0
shrinkage=0.05


Tree=91
num_leaves=7
num_cat=0
split_feature=0 2 0 3 2 1
split_gain=0.272212 0.336134 0.282132 0.335572 0.142857 0.0974026
threshold=2015.5000000000002 20766.500000000004 2022.5000000000002 2.5000000000000004 16070.500000000002 180500.00000000003
decision_type=2 2 2 2 2 2
left_child=5 4 3 -3 -2 -1
right_child=1 2 -4 -5 -6 -7
leaf_value=-21.889324138213329 2.2366825955742797 -18.79713281116592 74.53228617264304 7.3358613268583897 30.141720580597394 -2.0945923394955743
leaf_weight=11.000000000000002 14.000000000000002 10.000000000000002 10.999999999999998 19 13.999999999999998 9.9999999999999982
leaf_count=11 14 10 11 19 14 10
internal_value=0.00140449 0.00294118 0 -0.00258621 0.00714286 -0.00357143
internal_weight=89 68 40 29 28 21
internal_count=89 68 40 29 28 21
is_linear=0
shrinkage=0.05


Tree=92
num_leaves=7
num_cat=0
split_feature=0 2 0 0 0 1
split_gain=0.337149 0.370448 0.22092 0.351361 0.215641 0.0974026
threshold=2015.5000000000002 42097.500000000007 2018.5000000000002 2017.5000000000002 2020.5000000000002 180500.00000000003
decision_type=2 2 2 2 2 2
left_child=5 2 3 -2 -4 -1
right_child=1 -3 4 -5 -6 -7
leaf_value=-20.794857931302658 21.408402484882028 -118.66660746334661 77.092145209890177 -51.847461382737606 14.66813489170837 -1.9898627225207919
leaf_weight=11.000000000000002 19 13.999999999999998 13.000000000000002 10.000000000000002 11.999999999999998 9.9999999999999982
leaf_count=11 19 14 13 10 12 10
internal_value=0.00196629 0.00367647 0.00555556 0.00258621 0.009 -0.00357143
internal_weight=89 68 54 29 25 21
internal_count=89 68 54 29 25 21
is_linear=0
shrinkage=0.05


Tree=93
num_leaves=7
num_cat=0
split_feature=1 0 2 3 1 0
split_gain=0.240344 0.306845 0.287631 0.41087 0.230769 0.108361
threshold=187500.00000000003 2022.5000000000002 17203.000000000004 4.0000000000000009 219750.00000000003 2019.5000000000002
decision_type=2 2 2 2 2 2
left_child=1 2 -1 -4 -2 -5
right_child=4 -3 3 5 -6 -7
leaf_value=3.5502301005275996 3.1144610000209698 70.072265119425538 -16.927793008331886 -105.0433036905263 1.877978480037382 27.687532458632646
leaf_weight=18 13.000000000000002 10.999999999999998 11.999999999999998 10.000000000000002 11.999999999999998 12.999999999999998
leaf_count=18 13 11 12 10 12 13
internal_value=0.000842697 -0.00078125 -0.00235849 -0.005 0.005 -0.00108696
internal_weight=89 64 53 35 25 23
internal_count=89 64 53 35 25 23
is_linear=0
shrinkage=0.05


Tree=94
num_leaves=7
num_cat=0
split_feature=1 0 2 3 1 0
split_gain=0.240344 0.306845 0.287631 0.41087 0.230769 0.108361
threshold=187500.00000000003 2022.5000000000002 17203.000000000004 4.0000000000000009 219750.00000000003 2019.5000000000002
decision_type=2 2 2 2 2 2
left_child=1 2 -1 -4 -2 -5
right_child=4 -3 3 5 -6 -7
leaf_value=3.3727185955012176 2.958737950019918 66.568651863454221 -16.081403357915299 -99.791138505999982 1.7840795560355218 26.303155835701013
leaf_weight=18 13.000000000000002 10.999999999999998 11.999999999999998 10.000000000000002 11.999999999999998 12.999999999999998
leaf_count=18 13 11 12 10 12 13
internal_value=0.000842697 -0.00078125 -0.00235849 -0.005 0.005 -0.00108696
internal_weight=89 64 53 35 25 23
internal_count=89 64 53 35 25 23
is_linear=0
shrinkage=0.05


Tree=95
num_leaves=7
num_cat=0
split_feature=1 0 2 3 1 0
split_gain=0.240344 0.306845 0.287631 0.41087 0.230769 0.108361
threshold=187500.00000000003 2022.5000000000002 17203.000000000004 4.0000000000000009 219750.00000000003 2019.5000000000002
decision_type=2 2 2 2 2 2
left_child=1 2 -1 -4 -2 -5
right_child=4 -3 3 5 -6 -7
leaf_value=3.2040826657261565 2.8108010525189231 63.240219270281528 -15.277333190019531 -94.801581580699988 1.6948755782337686 24.987998043915958
leaf_weight=18 13.000000000000002 10.999999999999998 11.999999999999998 10.000000000000002 11.999999999999998 12.999999999999998
leaf_count=18 13 11 12 10 12 13
internal_value=0.000842697 -0.00078125 -0.00235849 -0.005 0.005 -0.00108696
internal_weight=89 64 53 35 25 23
internal_count=89 64 53 35 25 23
is_linear=0
shrinkage=0.05


Tree=96
num_leaves=7
num_cat=0
split_feature=0 2 0 0 0 1
split_gain=0.337149 0.370448 0.22092 0.351361 0.215641 0.0974026
threshold=2015.5000000000002 42097.500000000007 2018.5000000000002 2017.5000000000002 2020.5000000000002 180500.00000000003
decision_type=2 2 2 2 2 2
left_child=5 2 3 -2 -4 -1
right_child=1 -3 4 -5 -6 -7
leaf_value=-20.261466602825294 19.831630792550165 -119.70477265496457 88.21933913825697 -40.557024480263408 13.167424227573367 -2.246392926816418
leaf_weight=11.000000000000002 19 13.999999999999998 13.000000000000002 10.000000000000002 11.999999999999998 9.9999999999999982
leaf_count=11 19 14 13 10 12 10
internal_value=0.00196629 0.00367647 0.00555556 0.00258621 0.009 -0.00357143
internal_weight=89 68 54 29 25 21
internal_count=89 68 54 29 25 21
is_linear=0
shrinkage=0.05


Tree=97
num_leaves=7
num_cat=0
split_feature=0 2 0 2 2 0
split_gain=0.253019 0.565385 0.8 0.340909 0.4329 0.0974026
threshold=2022.5000000000002 20766.500000000004 2019.5000000000002 16070.500000000002 10500.500000000002 2013.5000000000002
decision_type=2 2 2 2 2 2
left_child=1 3 -3 4 5 -1
right_child=-2 2 -4 -5 -6 -7
leaf_value=4.7968539417079228 59.419837095388722 -176.09367367804433 -12.244036149590082 18.840049252922654 -5.4846881391697142 2.3318681950720022
leaf_weight=11.000000000000002 10.999999999999998 12.000000000000002 18 14.999999999999998 11.999999999999998 9.9999999999999982
leaf_count=11 11 12 18 15 12 10
internal_value=-0.000280899 -0.00128205 -0.00666667 0.00208333 -0.000757576 0.00357143
internal_weight=89 78 30 48 33 21
internal_count=89 78 30 48 33 21
is_linear=0
shrinkage=0.05


Tree=98
num_leaves=7
num_cat=0
split_feature=0 2 1 1 1 2
split_gain=0.337149 0.370448 0.500947 0.31002 0.0974026 0.0969697
threshold=2015.5000000000002 42097.500000000007 150200.00000000003 201000.00000000003 180500.00000000003 29229.000000000004
decision_type=2 2 2 2 2 2
left_child=4 2 5 -4 -1 -2
right_child=1 -3 3 -5 -6 -7
leaf_value=-19.488235969769427 24.763298481648988 -114.89892904586132 -2.2908907892827415 7.3663082413768057 -2.1168774255390477 23.692428737820997
leaf_weight=11.000000000000002 10.000000000000002 13.999999999999998 18 13.999999999999998 9.9999999999999982 11.999999999999998
leaf_count=11 10 14 18 14 10 12
internal_value=0.00196629 0.00367647 0.00555556 0.0015625 -0.00357143 0.0113636
internal_weight=89 68 54 32 21 22
internal_count=89 68 54 32 21 22
is_linear=0
shrinkage=0.05


Tree=99
num_leaves=7
num_cat=0
split_feature=0 2 1 1 1 2
split_gain=0.337149 0.370448 0.500947 0.31002 0.0974026 0.0969697
threshold=2015.5000000000002 42097.500000000007 150200.00000000003 201000.00000000003 180500.00000000003 29229.000000000004
decision_type=2 2 2 2 2 2
left_child=4 2 5 -4 -1 -2
right_child=1 -3 3 -5 -6 -7
leaf_value=-18.513824171280955 23.525133557566551 -109.15398259356826 -2.1763462498186072 6.9979928293079645 -2.0110335542620987 22.507807300929947
leaf_weight=11.000000000000002 10.000000000000002 13.999999999999998 18 13.999999999999998 9.9999999999999982 11.999999999999998
leaf_count=11 10 14 18 14 10 12
internal_value=0.00196629 0.00367647 0.00555556 0.0015625 -0.00357143 0.0113636
internal_weight=89 68 54 32 21 22
internal_count=89 68 54 32 21 22
is_linear=0
shrinkage=0.05


Tree=100
num_leaves=7
num_cat=0
split_feature=0 2 1 1 1 2
split_gain=0.337149 0.370448 0.500947 0.31002 0.0974026 0.0969697
threshold=2015.5000000000002 42097.500000000007 150200.00000000003 201000.00000000003 180500.00000000003 29229.000000000004
decision_type=2 2 2 2 2 2
left_child=4 2 5 -4 -1 -2
right_child=1 -3 3 -5 -6 -7
leaf_value=-17.588132962716895 22.348876879688216 -103.69628346388981 -2.0675289373276882 6.6480931878425737 -1.9104818765489882 21.382416935883452
leaf_weight=11.000000000000002 10.000000000000002 13.999999999999998 18 13.999999999999998 9.9999999999999982 11.999999999999998
leaf_count=11 10 14 18 14 10 12
internal_value=0.00196629 0.00367647 0.00555556 0.0015625 -0.00357143 0.0113636
internal_weight=89 68 54 32 21 22
internal_count=89 68 54 32 21 22
is_linear=0
shrinkage=0.05


Tree=101
num_leaves=7
num_cat=0
split_feature=0 2 1 2 2 1
split_gain=0.272212 0.299097 0.382275 0.297619 0.321429 0.0974026
threshold=2015.5000000000002 42097.500000000007 119423.00000000001 20766.500000000004 16070.500000000002 180500.00000000003
decision_type=2 2 2 2 2 2
left_child=5 2 -2 4 -4 -1
right_child=1 -3 3 -5 -6 -7
leaf_value=-16.708726314581053 36.691504340488336 -98.511469290695302 2.9602301399191675 -13.158031517065693 28.323167284861555 -1.8149577827215353
leaf_weight=11.000000000000002 11.999999999999998 13.999999999999998 14.000000000000002 13.999999999999998 13.999999999999998 9.9999999999999982
leaf_count=11 12 14 14 14 14 10
internal_value=0.00140449 0.00294118 0.00462963 0.00238095 0.00535714 -0.00357143
internal_weight=89 68 54 42 28 21
internal_count=89 68 54 42 28 21
is_linear=0
shrinkage=0.05


Tree=102
num_leaves=7
num_cat=0
split_feature=0 2 1 2 2 1
split_gain=0.272212 0.299097 0.382275 0.297619 0.321429 0.0974026
threshold=2015.5000000000002 42097.500000000007 119423.00000000001 20766.500000000004 16070.500000000002 180500.00000000003
decision_type=2 2 2 2 2 2
left_child=5 2 -2 4 -4 -1
right_child=1 -3 3 -5 -6 -7
leaf_value=-15.873289998852011 34.856929123463935 -93.585895826160538 2.8122186329232139 -12.500129941212428 26.90700892061848 -1.7242098935854528
leaf_weight=11.000000000000002 11.999999999999998 13.999999999999998 14.000000000000002 13.999999999999998 13.999999999999998 9.9999999999999982
leaf_count=11 12 14 14 14 14 10
internal_value=0.00140449 0.00294118 0.00462963 0.00238095 0.00535714 -0.00357143
internal_weight=89 68 54 42 28 21
internal_count=89 68 54 42 28 21
is_linear=0
shrinkage=0.05


Tree=103
num_leaves=7
num_cat=0
split_feature=0 2 1 1 1 2
split_gain=0.337149 0.370448 0.500947 0.31002 0.0974026 0.0969697
threshold=2015.5000000000002 42097.500000000007 150200.00000000003 201000.00000000003 180500.00000000003 29229.000000000004
decision_type=2 2 2 2 2 2
left_child=4 2 5 -4 -1 -2
right_child=1 -3 3 -5 -6 -7
leaf_value=-15.079625498909401 19.002056509574949 -88.906601034852528 -2.2527749291034183 6.6657599109396646 -1.6379993989061861 16.735874415891665
leaf_weight=11.000000000000002 10.000000000000002 13.999999999999998 18 13.999999999999998 9.9999999999999982 11.999999999999998
leaf_count=11 10 14 18 14 10 12
internal_value=0.00196629 0.00367647 0.00555556 0.0015625 -0.00357143 0.0113636
internal_weight=89 68 54 32 21 22
internal_count=89 68 54 32 21 22
is_linear=0
shrinkage=0.05


Tree=104
num_leaves=7
num_cat=0
split_feature=0 2 0 0 1 1
split_gain=0.214215 0.235372 0.202324 0.452308 0.25148 0.0974026
threshold=2015.5000000000002 42097.500000000007 2018.5000000000002 2020.5000000000002 180500.00000000003 180500.00000000003
decision_type=2 2 2 2 2 2
left_child=5 2 4 -4 -2 -1
right_child=1 -3 3 -5 -6 -7
leaf_value=-14.325644223963923 15.575915025279166 -84.461270983109898 94.335340983436808 7.7580716540060486 -2.5897503793273247 -1.5560994289608745
leaf_weight=11.000000000000002 11.000000000000002 13.999999999999998 13.000000000000002 11.999999999999998 18 9.9999999999999982
leaf_count=11 11 14 13 12 18 10
internal_value=0.000842697 0.00220588 0.0037037 0.007 0.000862069 -0.00357143
internal_weight=89 68 54 25 29 21
internal_count=89 68 54 25 29 21
is_linear=0
shrinkage=0.05


Tree=105
num_leaves=7
num_cat=0
split_feature=0 2 3 2 2 0
split_gain=0.253019 0.565385 1.06667 0.340909 0.4329 0.0974026
threshold=2022.5000000000002 20766.500000000004 2.5000000000000004 16070.500000000002 10500.500000000002 2013.5000000000002
decision_type=2 2 2 2 2 2
left_child=1 3 -3 4 5 -1
right_child=-2 2 -4 -5 -6 -7
leaf_value=10.435885201626206 48.267593615194897 -13.901082792055073 -63.465139076099334 14.7971192740152 -5.2051828205128574 0.67223215716928741
leaf_weight=11.000000000000002 10.999999999999998 10.000000000000002 20 14.999999999999998 11.999999999999998 9.9999999999999982
leaf_count=11 11 10 20 15 12 10
internal_value=-0.000280899 -0.00128205 -0.00666667 0.00208333 -0.000757576 0.00357143
internal_weight=89 78 30 48 33 21
internal_count=89 78 30 48 33 21
is_linear=0
shrinkage=0.05


Tree=106
num_leaves=7
num_cat=0
split_feature=0 2 3 2 2 0
split_gain=0.253019 0.565385 1.06667 0.340909 0.4329 0.0974026
threshold=2022.5000000000002 20766.500000000004 2.5000000000000004 16070.500000000002 10500.500000000002 2013.5000000000002
decision_type=2 2 2 2 2 2
left_child=1 3 -3 4 5 -1
right_child=-2 2 -4 -5 -6 -7
leaf_value=9.914090941544897 45.854213934435215 -13.206028652452318 -60.291882122294375 14.057263310314443 -4.9449236794872098 0.63862054931082646
leaf_weight=11.000000000000002 10.999999999999998 10.000000000000002 20 14.999999999999998 11.999999999999998 9.9999999999999982
leaf_count=11 11 10 20 15 12 10
internal_value=-0.000280899 -0.00128205 -0.00666667 0.00208333 -0.000757576 0.00357143
internal_weight=89 78 30 48 33 21
internal_count=89 78 30 48 33 21
is_linear=0
shrinkage=0.05


Tree=107
num_leaves=7
num_cat=0
split_feature=1 1 3 3 1 1
split_gain=0.240344 0.56893 0.516743 0.466621 0.292641 0.230769
threshold=187500.00000000003 144950.50000000003 4.0000000000000009 4.0000000000000009 161750.00000000003 219750.00000000003
decision_type=2 2 2 2 2 2
left_child=1 3 -3 -1 -4 -2
right_child=5 2 4 -5 -6 -7
leaf_value=43.561503237713445 8.4340621020707438 -12.545727219829699 -3.9885384959624619 -36.006016051040568 59.195199475675807 0.6066895218452828
leaf_weight=13.999999999999998 13.000000000000002 10.000000000000002 11.000000000000002 19 9.9999999999999982 11.999999999999998
leaf_count=14 13 10 11 19 10 12
internal_value=0.000842697 -0.00078125 -0.00564516 0.00378788 -0.00119048 0.005
internal_weight=89 64 31 33 21 25
internal_count=89 64 31 33 21 25
is_linear=0
shrinkage=0.05


Tree=108
num_leaves=7
num_cat=0
split_feature=0 2 3 2 2 0
split_gain=0.253019 0.565385 1.06667 0.340909 0.4329 0.0974026
threshold=2022.5000000000002 20766.500000000004 2.5000000000000004 16070.500000000002 10500.500000000002 2013.5000000000002
decision_type=2 2 2 2 2 2
left_child=1 3 -3 4 5 -1
right_child=-2 2 -4 -5 -6 -7
leaf_value=9.6178133192657818 41.383428075827766 -12.292224686929803 -56.587989167455412 13.981686505790208 -4.6131312711599213 0.57635504575303009
leaf_weight=11.000000000000002 10.999999999999998 10.000000000000002 20 14.999999999999998 11.999999999999998 9.9999999999999982
leaf_count=11 11 10 20 15 12 10
internal_value=-0.000280899 -0.00128205 -0.00666667 0.00208333 -0.000757576 0.00357143
internal_weight=89 78 30 48 33 21
internal_count=89 78 30 48 33 21
is_linear=0
shrinkage=0.05


Tree=109
num_leaves=8
num_cat=0
split_feature=0 3 2 4 2 2 2
split_gain=0.339449 0.594872 0.8 0.483333 0.437879 0.539657 0.277009
threshold=2022.5000000000002 2.5000000000000004 20766.500000000004 1.5000000000000002 10500.500000000002 16722.500000000004 29229.000000000004
decision_type=2 2 2 2 2 2 2
left_child=1 2 -1 4 -3 -6 -7
right_child=-2 3 -4 -5 5 6 -8
leaf_value=0.3601521009733773 39.314256672036393 8.764648193975745 -11.677613452583325 99.153593829678698 -10.19247765758039 80.968229454401381 -118.35893787350524
leaf_weight=10.000000000000002 10.999999999999998 14.999999999999998 9.9999999999999982 9.9999999999999982 9.9999999999999982 12.000000000000002 10.999999999999998
leaf_count=10 11 15 10 10 10 12 11
internal_value=-0.00140449 -0.0025641 -0.01 0 -0.00208333 -0.00530303 -0.00108696
internal_weight=89 78 20 58 48 33 23
internal_count=89 78 20 58 48 33 23
is_linear=0
shrinkage=0.05


Tree=110
num_leaves=7
num_cat=0
split_feature=1 0 3 1 2 1
split_gain=0.387816 0.445996 0.767192 0.310256 0.420746 0.230769
threshold=187500.00000000003 2022.5000000000002 4.0000000000000009 154475.00000000003 24954.500000000004 219750.00000000003
decision_type=2 2 2 2 2 2
left_child=1 2 -1 4 -4 -2
right_child=5 -3 3 -5 -6 -7
leaf_value=-0.6421499971562753 5.8840787638560421 37.348543838434487 -24.516193282949644 8.6986902436037106 32.246675326916531 0.31941728609167513
leaf_weight=13.999999999999998 13.000000000000002 10.999999999999998 11.000000000000002 14.999999999999998 12.999999999999998 11.999999999999998
leaf_count=14 13 11 11 15 13 12
internal_value=-0.000280899 -0.00234375 -0.00424528 -0.000641026 -0.00416667 0.005
internal_weight=89 64 53 39 24 25
internal_count=89 64 53 39 24 25
is_linear=0
shrinkage=0.05


Tree=111
num_leaves=6
num_cat=0
split_feature=1 0 3 1 1
split_gain=0.474719 0.540643 0.395085 0.259314 0.230769
threshold=187500.00000000003 2021.5000000000002 4.0000000000000009 154475.00000000003 219750.00000000003
decision_type=2 2 2 2 2
left_child=1 2 -1 -4 -2
right_child=4 -3 3 -5 -6
leaf_value=-0.36296115261220624 5.5898748256632418 30.634341560570704 -23.290383618802164 8.2637557314235206 0.30344642178711184
leaf_weight=12.999999999999998 13.000000000000002 19 17 14.999999999999998 11.999999999999998
leaf_count=13 13 19 17 15 12
internal_value=-0.000842697 -0.003125 -0.00611111 -0.003125 0.005
internal_weight=89 64 45 32 25
internal_count=89 64 45 32 25
is_linear=0
shrinkage=0.05


Tree=112
num_leaves=8
num_cat=0
split_feature=0 3 2 4 2 2 2
split_gain=0.339449 0.594872 0.8 0.483333 0.437879 0.539657 0.277009
threshold=2022.5000000000002 2.5000000000000004 20766.500000000004 1.5000000000000002 10500.500000000002 16722.500000000004 29229.000000000004
decision_type=2 2 2 2 2 2 2
left_child=1 2 -1 4 -3 -6 -7
right_child=-2 3 -4 -5 5 6 -8
leaf_value=0.08042343493094678 33.949399568484296 7.7527181048010112 -11.043477222465748 93.756281396122134 -7.3533152616287794 77.891075111522241 -115.58504182420434
leaf_weight=10.000000000000002 10.999999999999998 14.999999999999998 9.9999999999999982 9.9999999999999982 9.9999999999999982 12.000000000000002 10.999999999999998
leaf_count=10 11 15 10 10 10 12 11
internal_value=-0.00140449 -0.0025641 -0.01 0 -0.00208333 -0.00530303 -0.00108696
internal_weight=89 78 20 58 48 33 23
internal_count=89 78 20 58 48 33 23
is_linear=0
shrinkage=0.05


Tree=113
num_leaves=7
num_cat=0
split_feature=0 2 1 2 0 1
split_gain=0.368822 0.702051 0.961538 0.567326 0.215641 0.0291375
threshold=2018.5000000000002 11778.000000000002 171500.00000000003 42097.500000000007 2020.5000000000002 201000.00000000003
decision_type=2 2 2 2 2 2
left_child=1 5 -3 4 -2 -1
right_child=3 2 -4 -5 -6 -7
leaf_value=0.44191387054102055 88.341635317314157 13.310828961193899 -94.556671062334274 -76.571501733625183 16.22964517810092 4.8497468943921378
leaf_weight=13.000000000000002 13.000000000000002 13.000000000000002 12.999999999999998 13.999999999999998 11.999999999999998 10.999999999999998
leaf_count=13 13 13 13 14 12 11
internal_value=0.000842697 -0.002 -0.00769231 0.00448718 0.009 0.00416667
internal_weight=89 50 26 39 25 24
internal_count=89 50 26 39 25 24
is_linear=0
shrinkage=0.05


Tree=114
num_leaves=7
num_cat=0
split_feature=2 1 0 0 2 1
split_gain=0.483472 1.08968 0.433929 0.182751 0.142857 0.05
threshold=20766.500000000004 119423.00000000001 2015.5000000000002 2022.5000000000002 16070.500000000002 180500.00000000003
decision_type=2 2 2 2 2 2
left_child=2 3 5 -2 -4 -1
right_child=1 -3 4 -5 -6 -7
leaf_value=-9.7167934592404208 -0.95234337129049895 -21.507287058359175 2.3858389147264005 31.440447331155156 22.212298922930849 -0.056007319827995165
leaf_weight=10.000000000000002 15.000000000000002 14.999999999999998 14.000000000000002 10.999999999999998 13.999999999999998 9.9999999999999982
leaf_count=10 15 15 14 11 14 10
internal_value=-0.000280899 -0.00426829 0.003125 0.00192308 0.00714286 -0.0025
internal_weight=89 41 48 26 28 20
internal_count=89 41 48 26 28 20
is_linear=0
shrinkage=0.05


Tree=115
num_leaves=7
num_cat=0
split_feature=2 0 0 2 2 1
split_gain=0.33713 1.25848 0.433929 0.191645 0.142857 0.05
threshold=20766.500000000004 2019.5000000000002 2015.5000000000002 42097.500000000007 16070.500000000002 180500.00000000003
decision_type=2 2 2 2 2 2
left_child=2 -2 5 -3 -4 -1
right_child=1 3 4 -5 -6 -7
leaf_value=-9.2309537862783948 -165.7630483874826 29.868424964597398 2.2665469689900877 -41.080661014132694 21.101683976784297 -0.053206953836593129
leaf_weight=10.000000000000002 11.999999999999998 16.000000000000004 14.000000000000002 12.999999999999998 13.999999999999998 9.9999999999999982
leaf_count=10 12 16 14 13 14 10
internal_value=0.000280899 -0.00304878 0.003125 0.00258621 0.00714286 -0.0025
internal_weight=89 41 48 29 28 20
internal_count=89 41 48 29 28 20
is_linear=0
shrinkage=0.05


Tree=116
num_leaves=7
num_cat=0
split_feature=0 2 1 2 2 1
split_gain=0.272212 0.299097 0.382275 0.297619 0.321429 0.0974026
threshold=2015.5000000000002 42097.500000000007 119423.00000000001 20766.500000000004 16070.500000000002 180500.00000000003
decision_type=2 2 2 2 2 2
left_child=5 2 -2 4 -4 -1
right_child=1 -3 3 -5 -6 -7
leaf_value=-13.277035902290141 30.499796975774803 -71.451096195233873 2.1532196205405856 -11.473761170873182 20.046599777945076 -0.05054660614475779
leaf_weight=11.000000000000002 11.999999999999998 13.999999999999998 14.000000000000002 13.999999999999998 13.999999999999998 9.9999999999999982
leaf_count=11 12 14 14 14 14 10
internal_value=0.00140449 0.00294118 0.00462963 0.00238095 0.00535714 -0.00357143
internal_weight=89 68 54 42 28 21
internal_count=89 68 54 42 28 21
is_linear=0
shrinkage=0.05


Tree=117
num_leaves=7
num_cat=0
split_feature=0 2 1 2 2 1
split_gain=0.272212 0.299097 0.382275 0.297619 0.321429 0.0974026
threshold=2015.5000000000002 42097.500000000007 119423.00000000001 20766.500000000004 16070.500000000002 180500.00000000003
decision_type=2 2 2 2 2 2
left_child=5 2 -2 4 -4 -1
right_child=1 -3 3 -5 -6 -7
leaf_value=-12.613184107175631 28.974807126986061 -67.878541385472161 2.0455586395135472 -10.900073112329517 19.044269789047828 -0.048019275837515356
leaf_weight=11.000000000000002 11.999999999999998 13.999999999999998 14.000000000000002 13.999999999999998 13.999999999999998 9.9999999999999982
leaf_count=11 12 14 14 14 14 10
internal_value=0.00140449 0.00294118 0.00462963 0.00238095 0.00535714 -0.00357143
internal_weight=89 68 54 42 28 21
internal_count=89 68 54 42 28 21
is_linear=0
shrinkage=0.05


Tree=118
num_leaves=7
num_cat=0
split_feature=0 2 1 1 1 2
split_gain=0.337149 0.370448 0.500947 0.31002 0.0974026 0.0969697
threshold=2015.5000000000002 42097.500000000007 150200.00000000003 201000.00000000003 180500.00000000003 29229.000000000004
decision_type=2 2 2 2 2 2
left_child=4 2 5 -4 -1 -2
right_child=1 -3 3 -5 -6 -7
leaf_value=-11.982524901816852 17.092480081465521 -64.484614316198559 -0.83853804960739353 6.2361908007778197 -0.04561831204564442 25.401273511229558
leaf_weight=11.000000000000002 10.000000000000002 13.999999999999998 18 13.999999999999998 9.9999999999999982 11.999999999999998
leaf_count=11 10 14 18 14 10 12
internal_value=0.00196629 0.00367647 0.00555556 0.0015625 -0.00357143 0.0113636
internal_weight=89 68 54 32 21 22
internal_count=89 68 54 32 21 22
is_linear=0
shrinkage=0.05


Tree=119
num_leaves=7
num_cat=0
split_feature=0 2 1 2 2 1
split_gain=0.272212 0.299097 0.382275 0.297619 0.321429 0.0974026
threshold=2015.5000000000002 42097.500000000007 119423.00000000001 20766.500000000004 16070.500000000002 180500.00000000003
decision_type=2 2 2 2 2 2
left_child=5 2 -2 4 -4 -1
right_child=1 -3 3 -5 -6 -7
leaf_value=-11.383398656726014 26.256003095075268 -61.260383600388629 1.8083393887585999 -10.969137843253629 17.685707748798986 -0.043337396443365608
leaf_weight=11.000000000000002 11.999999999999998 13.999999999999998 14.000000000000002 13.999999999999998 13.999999999999998 9.9999999999999982
leaf_count=11 12 14 14 14 14 10
internal_value=0.00140449 0.00294118 0.00462963 0.00238095 0.00535714 -0.00357143
internal_weight=89 68 54 42 28 21
internal_count=89 68 54 42 28 21
is_linear=0
shrinkage=0.05


Tree=120
num_leaves=7
num_cat=0
split_feature=0 0 1 2 1 0
split_gain=0.237447 0.492601 0.49641 0.449557 0.999015 0.0974026
threshold=2018.5000000000002 2020.5000000000002 54500.000000000007 10500.500000000002 171500.00000000003 2013.5000000000002
decision_type=2 2 2 2 2 2
left_child=3 -2 -3 5 -5 -1
right_child=1 2 -4 4 -6 -7
leaf_value=10.851030886761624 49.770414010403357 27.067996199728714 -78.903661661686328 4.9624791287611068 -19.654915031656426 -0.99482649918047628
leaf_weight=11.000000000000002 13.999999999999998 13.000000000000002 11.999999999999998 14.000000000000002 14.999999999999998 9.9999999999999982
leaf_count=11 14 13 12 14 15 10
internal_value=0.000280899 0.00320513 -0.001 -0.002 -0.00603448 0.00357143
internal_weight=89 39 25 50 29 21
internal_count=89 39 25 50 29 21
is_linear=0
shrinkage=0.05


Tree=121
num_leaves=8
num_cat=0
split_feature=0 2 1 3 1 1 2
split_gain=0.409027 0.449424 0.353956 0.384091 0.490909 0.0974026 0.0969697
threshold=2015.5000000000002 42097.500000000007 150200.00000000003 2.5000000000000004 201000.00000000003 180500.00000000003 29229.000000000004
decision_type=2 2 2 2 2 2 2
left_child=5 2 6 -4 -5 -1 -2
right_child=1 -3 3 4 -6 -7 -8
leaf_value=-11.062352680327763 14.701619501274479 -59.550764230355639 -10.986735934096354 -0.6799945896929217 63.54298582976503 0.17892657700116957 25.714596389742283
leaf_weight=11.000000000000002 10.000000000000002 13.999999999999998 9.9999999999999982 12.000000000000002 9.9999999999999982 9.9999999999999982 11.999999999999998
leaf_count=11 10 14 10 12 10 10 12
internal_value=0.00252809 0.00441176 0.00648148 0.003125 0.00681818 -0.00357143 0.0113636
internal_weight=89 68 54 32 22 21 22
internal_count=89 68 54 32 22 21 22
is_linear=0
shrinkage=0.05


Tree=122
num_leaves=8
num_cat=0
split_feature=0 2 1 3 1 1 2
split_gain=0.409027 0.449424 0.353956 0.384091 0.490909 0.0974026 0.0969697
threshold=2015.5000000000002 42097.500000000007 150200.00000000003 2.5000000000000004 201000.00000000003 180500.00000000003 29229.000000000004
decision_type=2 2 2 2 2 2 2
left_child=5 2 6 -4 -5 -1 -2
right_child=1 -3 3 4 -6 -7 -8
leaf_value=-10.509235046311369 13.966538526210753 -56.573226018837865 -10.437399137391521 -0.6459948602082819 60.365836538276795 0.16998024815110854 24.428866570255167
leaf_weight=11.000000000000002 10.000000000000002 13.999999999999998 9.9999999999999982 12.000000000000002 9.9999999999999982 9.9999999999999982 11.999999999999998
leaf_count=11 10 14 10 12 10 10 12
internal_value=0.00252809 0.00441176 0.00648148 0.003125 0.00681818 -0.00357143 0.0113636
internal_weight=89 68 54 32 22 21 22
internal_count=89 68 54 32 22 21 22
is_linear=0
shrinkage=0.05


Tree=123
num_leaves=7
num_cat=0
split_feature=2 0 1 2 0 1
split_gain=0.28435 0.478058 0.404482 0.14026 0.11825 0.0974026
threshold=40192.500000000007 2015.5000000000002 150200.00000000003 29229.000000000004 2017.5000000000002 180500.00000000003
decision_type=2 2 2 2 2 2
left_child=1 5 3 -3 -4 -1
right_child=-2 2 4 -5 -6 -7
leaf_value=-9.9837732939957959 -21.320096486088097 13.268211599900225 0.72241522971205541 23.207423241742408 -2.3832249604358822 0.16148123574354828
leaf_weight=11.000000000000002 17 10.000000000000002 17.000000000000004 10.999999999999998 12.999999999999998 9.9999999999999982
leaf_count=11 17 10 17 11 13 10
internal_value=0.00140449 0.00277778 0.00539216 0.0107143 0.00166667 -0.00357143
internal_weight=89 72 51 21 30 21
internal_count=89 72 51 21 30 21
is_linear=0
shrinkage=0.05


Tree=124
num_leaves=7
num_cat=0
split_feature=0 2 0 1 1 0
split_gain=0.214557 0.553846 0.506617 0.225759 0.218002 0.218182
threshold=2022.5000000000002 29229.000000000004 2018.5000000000002 154475.00000000003 201000.00000000003 2015.5000000000002
decision_type=2 2 2 2 2 2
left_child=1 2 3 -1 5 -5
right_child=-2 -3 -4 4 -6 -7
leaf_value=-1.6653714841927014 23.096048453911681 -85.103028125399447 88.031147751633 3.6243146219964046 -3.4656821133671656 1.1677656610274796
leaf_weight=10.999999999999998 10.999999999999998 18 10.999999999999998 12.000000000000002 15.999999999999998 9.9999999999999982
leaf_count=11 11 18 11 12 16 10
internal_value=0.000280899 -0.000641026 0.00166667 -0.000510204 0.00131579 0.00454545
internal_weight=89 78 60 49 38 22
internal_count=89 78 60 49 38 22
is_linear=0
shrinkage=0.05


Tree=125
num_leaves=7
num_cat=0
split_feature=4 2 1 0 3 2
split_gain=0.251103 0.307252 0.844291 0.483752 0.110823 0.0742424
threshold=1.5000000000000002 20766.500000000004 119423.00000000001 2015.5000000000002 4.0000000000000009 16070.500000000002
decision_type=2 2 2 2 2 2
left_child=1 3 4 -1 -3 -5
right_child=-2 2 -4 5 -6 -7
leaf_value=-0.94496833764451371 13.78309058811724 21.941246031216181 -128.20035238755429 4.1783827004703999 -80.847876719129459 5.0010543641078558
leaf_weight=17 18 10 10.999999999999998 12.000000000000002 11 9.9999999999999982
leaf_count=17 18 10 11 12 11 10
internal_value=0.000280899 -0.00105634 -0.0046875 0.00192308 0.00119048 0.00681818
internal_weight=89 71 32 39 21 22
internal_count=89 71 32 39 21 22
is_linear=0
shrinkage=0.05


Tree=126
num_leaves=7
num_cat=0
split_feature=0 2 0 0 0 1
split_gain=0.272212 0.299097 0.355658 0.720327 0.215641 0.0974026
threshold=2015.5000000000002 42097.500000000007 2018.5000000000002 2017.5000000000002 2020.5000000000002 180500.00000000003
decision_type=2 2 2 2 2 2
left_child=5 2 3 -2 -4 -1
right_child=1 -3 4 -5 -6 -7
